w1|0|[  2.71637883e-01, -7.68233780e-02,  2.67072378e-01, -3.08854887e-01,  8.68748665e-02,  2.16979259e-01, -1.24253569e-01, -5.51580611e-02, -6.99883863e-02, -1.23809032e-01, -1.05589738e-01,  4.73058726e-02, -2.25342298e-02,  5.90459978e-02,  2.99627851e-02, -2.69125587e-01,  2.40566189e-01, -8.27576830e-02, -7.93126424e-02, -1.60120831e-01, -6.12347332e-02, -4.86686438e-04, -1.91056839e-01, -1.38288304e-01,  4.40751775e-02, -1.85171076e-01,  2.62756590e-01, -3.48364541e-02, -1.46607160e-01, -1.04008485e-01, -2.16620089e-02,  2.55793126e-01,  9.32609919e-02,  7.92353502e-04, -6.37719100e-02, -1.90744157e-01, -1.94875294e-02, -2.59692752e-01,  9.36018160e-02, -6.29685967e-02, -1.69139046e-01,  1.69891403e-01, -1.43673845e-01, -2.00558306e-01, -9.96865110e-02, -3.19130531e-02, -4.46732521e-02, -1.75006691e-02, -1.26298441e-01, -2.69444029e-01, -1.74425745e-01,  1.25210735e-02,  1.04785534e-02,  2.63948120e-02, -7.65929210e-02,  1.55799553e-03, -1.27581247e-02, -8.85210788e-03, -3.56225388e-02, -3.17787325e-02, -2.59826638e-02, -4.29675305e-03,  3.49942630e-03, -1.19872165e-02, -6.33313216e-03,  1.91604043e-02,  3.25596096e-04, -8.33112774e-03,  5.15350460e-02,  1.00635765e-02, -2.62535787e-02,  6.39715769e-03, -5.28914194e-03,  8.30747097e-03, -3.21272042e-02,  4.09226482e-03,  6.42230354e-03,  1.01523024e-02, -1.06342333e-02, -1.01372626e-02, -1.32924253e-03,  1.12119537e-03, -7.54324215e-03, -1.84267677e-02,  3.07069939e-03, -8.11913197e-03,  5.17217536e-03,  2.57525128e-02,  9.50372181e-03, -1.58744687e-02,  5.21227122e-03, -5.07283294e-03, -4.06485102e-01]
w1|1|[  1.93020206e-02,  6.83021223e-02,  4.33714281e-01,  1.39604665e+00,  2.33009827e-01,  3.60482522e-02, -1.55761145e-01, -1.07033749e-01, -1.85122032e-01, -5.17281488e-02, -1.51065782e-02,  1.96845220e-04,  7.74351427e-02, -1.03838542e-01, -1.85868215e-02, -2.13171553e-01,  1.72772322e-01, -1.37007398e-01, -1.09878861e-01, -1.84134131e-01, -8.70274484e-02,  1.58531940e-02, -7.87390713e-02, -1.72657355e-01, -6.84938070e-02, -2.07285731e-01,  9.84584929e-02, -6.38388395e-02,  4.40890807e-02, -7.39075071e-02,  8.77978636e-02,  1.74554472e-01, -1.62288257e-02, -9.60423297e-02, -9.03631143e-02, -1.09836011e-01,  4.12470718e-02, -1.91853027e-01, -1.27001927e-03, -1.46684313e-01, -1.86893171e-01,  1.29673558e-01, -9.75891802e-02, -1.54019544e-01, -1.07860607e-01, -1.43317074e-01, -6.80874390e-02, -5.32456388e-02, -3.28744486e-01, -2.14632735e-01,  3.15907343e-02, -8.07132214e-02, -2.45550604e-02, -9.11574374e-02, -1.33650020e-01, -2.26993256e-02,  5.49845500e-02,  2.48080713e-02,  2.50047179e-02,  1.30253410e-02,  7.08777758e-03, -2.96774252e-02, -5.54033971e-02, -8.38351734e-02, -1.08028485e-02, -4.51486025e-02,  3.23173521e-02,  5.40715905e-03, -8.98491623e-02,  2.71895880e-02,  1.69428454e-02, -3.19524311e-02,  4.48510547e-03,  4.71728731e-02,  3.89451515e-02,  3.97739079e-02, -1.79584415e-02, -3.95514067e-02, -3.27114803e-02,  6.90306351e-03, -9.65924416e-03,  5.26044987e-03,  1.80749774e-02,  2.53131995e-02, -1.92287814e-02,  1.60715892e-02, -2.61065850e-02, -6.60929979e-02, -1.98783458e-02,  3.45101070e-02, -2.54019704e-02, -3.56833733e-03, -5.46966106e-01]
w1|2|[  2.59759424e-01, -7.25537229e-02,  2.73401884e-01, -2.27899671e-01,  9.63973548e-02,  1.97849558e-01, -1.40643261e-01, -5.08058294e-02, -6.19356889e-02, -1.32076122e-01, -9.88421869e-02,  4.83687832e-02, -3.38643106e-02,  5.96179464e-02,  1.64602748e-02, -3.04131629e-01,  2.37641296e-01, -7.44168157e-02, -6.92610308e-02, -1.28771864e-01, -7.86467821e-02, -1.72280340e-02, -1.80714863e-01, -1.16566491e-01,  2.50001055e-02, -1.98189339e-01,  2.80509625e-01, -1.96690356e-02, -1.10235308e-01, -1.03272601e-01, -2.75919912e-02,  2.38265779e-01,  1.00260191e-01, -6.55766098e-03, -5.72323893e-02, -2.03569316e-01, -2.70368208e-02, -2.62514976e-01,  9.04519955e-02, -5.40543603e-02, -1.66231547e-01,  1.60707189e-01, -1.55232641e-01, -1.90237871e-01, -9.73077078e-02, -1.61091446e-02, -5.06563226e-02, -2.75299974e-02, -1.47888381e-01, -2.53818027e-01, -1.67299214e-01,  2.81397777e-02, -5.68072111e-03,  2.88076028e-02, -8.52325167e-02, -9.09014360e-03, -1.35721214e-02, -6.26354797e-03, -3.65532514e-02, -1.86933176e-02, -2.41945732e-02, -2.00851878e-02, -6.23704888e-03, -3.46682141e-03,  3.69927597e-04,  2.88436449e-02, -1.72355873e-02, -2.22694997e-02,  5.32740872e-02,  1.68601250e-02, -2.61070084e-02,  1.07053072e-02, -2.20953150e-03,  1.24701210e-02, -2.38166129e-02,  1.95229068e-03,  2.31853376e-03,  1.31638789e-03, -1.78190237e-02, -1.64226544e-03,  3.25371103e-04, -1.01798197e-02, -2.32093276e-02, -1.33278041e-02, -1.08189228e-02, -3.64413498e-03, -7.45198729e-03,  8.22873607e-03,  7.58041564e-03, -2.27944682e-02,  2.60583960e-03,  5.89042239e-03, -4.09059604e-01]
w1|3|[  1.41839619e-01, -2.57042801e-02,  3.09943753e-01,  3.44703959e-01,  1.45196050e-01,  1.35464200e-01, -1.25255209e-01, -6.03640689e-02, -1.09711957e-01, -1.00539451e-01, -8.26760310e-02,  3.62793719e-02,  4.65912117e-02,  4.32263899e-03,  7.12218489e-03, -2.91905787e-01,  1.75473408e-01, -6.91384496e-02, -9.49885753e-02, -1.19679812e-01, -3.89120710e-02,  3.22217951e-02, -1.42198092e-01, -1.13222858e-01,  1.29581711e-02, -2.16753323e-01,  1.94421615e-01, -7.02258636e-02, -4.65681563e-02, -1.06973912e-01,  3.95516489e-02,  2.07126589e-01,  4.48800961e-02, -2.37319343e-02, -7.28424629e-02, -1.60800975e-01, -9.29283404e-06, -2.64017734e-01,  4.94265973e-02, -8.89159530e-02, -1.46713340e-01,  1.48825331e-01, -1.25611686e-01, -1.38170157e-01, -1.50792733e-01, -4.45504249e-02, -7.09290007e-02, -7.18342192e-02, -1.67996748e-01, -2.82618019e-01, -9.69495648e-02, -2.34949119e-02, -2.87473270e-02, -2.00106902e-02, -1.12654260e-01, -1.45742256e-02,  6.81394324e-03, -1.16257261e-02, -1.89898051e-02,  6.37833804e-03, -1.98444679e-02, -1.73293321e-02, -6.91815171e-03, -1.48283257e-02, -9.68498893e-03,  1.28650832e-02, -4.42439523e-03,  2.31870486e-04, -2.62790417e-02,  2.42937082e-02,  1.03162816e-02, -1.40157766e-02,  2.36304968e-03,  1.02866332e-02,  9.85184337e-03,  8.29921825e-03, -6.65003447e-03, -3.60739805e-02, -1.40532258e-02,  1.14014202e-03, -1.89220564e-02, -1.38000707e-03,  2.45335249e-03,  1.29419126e-03, -6.59549536e-03,  1.64503658e-03,  1.03201854e-02, -1.30891347e-02, -3.56184806e-03,  4.77212208e-03,  2.03503645e-02, -1.13675645e-03, -4.67031463e-01]
w1|4|[  1.22397722e-01,  4.48522733e-02,  4.60136784e-01,  1.88388519e+00,  2.04195486e-01,  2.43574848e-01,  3.39653437e-02, -3.62781213e-02, -1.01344737e-01, -7.03268495e-02, -4.32988252e-02,  6.80662375e-03,  3.68817244e-02, -1.62719858e-01, -2.49266533e-02, -1.11944346e-01,  9.43230186e-02, -9.56699317e-02, -1.20900427e-01, -1.09960396e-01, -6.95285912e-02,  7.71046661e-03, -5.19443041e-02, -1.29549964e-01, -4.86317682e-02, -1.98448757e-01,  1.46466996e-01,  9.00085449e-03, -7.58781085e-02, -8.58657107e-02,  3.94413496e-02,  1.73979244e-01,  8.01580028e-02, -1.41805204e-01, -3.60485832e-02, -1.03976491e-01,  6.32578327e-02, -1.98903292e-01,  1.74340119e-02, -2.33618421e-02, -8.24728284e-02,  3.49643191e-02, -1.31965045e-01, -1.27339096e-01, -5.57436634e-02, -4.41067860e-02, -7.88238554e-02, -1.04627175e-01, -1.18564971e-01, -2.78722361e-01,  5.09349568e-02,  3.10331964e-03, -5.24659539e-02, -1.24577470e-01, -8.69425197e-02, -4.97342550e-02,  7.59389673e-02,  1.83727434e-02,  2.28674840e-02,  1.99207176e-02, -3.91084852e-02,  6.05106196e-03, -2.51818546e-02, -1.07506865e-01, -2.76417357e-03, -1.01766037e-02,  2.48793976e-02,  4.12804619e-03, -1.46715856e-01,  4.48498949e-02,  9.32449941e-03, -4.56658176e-02,  1.88417960e-02,  6.78760453e-02,  6.09614984e-02,  4.51228607e-02, -2.50241980e-02, -6.10152388e-02, -3.10838192e-02,  1.67220772e-02, -2.66070262e-02,  2.07348311e-02, -7.53799166e-03,  3.82665441e-02, -1.00187075e-02,  2.71614529e-02,  1.00343509e-03, -5.42721855e-02, -2.86957395e-02,  4.25292899e-02, -2.98112350e-02, -2.31467384e-03, -4.16776132e-01]
w1|5|[  7.30548528e-02,  4.22488614e-02,  4.60273510e-01,  1.55729492e+00,  1.93531853e-01,  1.22687996e-01, -3.46118710e-03, -1.12211188e-01, -1.90717297e-01, -3.71560813e-02, -3.42797038e-02,  1.50837551e-03,  6.32705812e-02, -1.49601639e-01, -2.37904445e-02, -1.80774276e-01,  7.91802640e-02, -9.57287444e-02, -8.97027262e-02, -1.16236922e-01, -7.62667797e-02, -1.99913352e-03, -6.65690731e-02, -1.61599794e-01, -1.06003501e-01, -1.80877876e-01,  1.23708743e-01,  4.72735650e-03, -3.32799209e-02, -9.66080805e-02,  6.76588515e-02,  1.77370052e-01,  4.71187757e-02, -1.19683583e-01, -6.33046111e-02, -1.10975729e-01,  5.48167088e-02, -1.92554517e-01, -8.63238981e-03, -9.56283349e-02, -1.09860426e-01,  7.00084743e-02, -1.22622766e-01, -1.36566759e-01, -1.01656218e-01, -8.65622164e-02, -7.74644642e-02, -9.36062294e-02, -2.25169385e-01, -2.65114182e-01,  2.25602377e-02, -6.18337419e-02, -3.83625463e-02, -8.34369819e-02, -1.19951411e-01, -5.43755570e-02,  6.09846931e-02,  2.71135494e-02,  9.62514571e-03,  2.30395112e-02, -3.05169846e-02, -3.84185303e-02, -3.97854720e-02, -8.92326875e-02,  3.25138580e-03, -7.46806413e-03,  2.07634213e-02,  1.83684426e-03, -1.26334263e-01,  4.09098370e-02,  1.68032361e-02, -2.26582423e-02,  2.32320155e-02,  5.57456518e-02,  4.56746399e-02,  3.40813383e-02, -4.45411167e-02, -2.06220840e-02, -2.03766086e-02,  1.26758846e-02, -2.22481103e-02,  1.02566755e-02, -9.92683591e-04,  4.18337694e-02, -4.43606655e-03,  2.49092691e-02, -3.34674412e-02, -7.39652535e-02, -3.12665595e-02,  3.66295451e-02, -1.62422946e-02,  1.92741992e-02, -5.01559278e-01]
w1|6|[  1.02967263e-01, -6.09639992e-03,  3.26709994e-01,  6.04681261e-01,  1.78956638e-01,  1.18081655e-01, -1.26002148e-01, -5.37751771e-02, -1.24815935e-01, -1.05772927e-01, -8.25142017e-02,  5.25057489e-02,  7.04286700e-02, -3.33427977e-02, -2.55696412e-02, -2.70049448e-01,  1.44219996e-01, -6.46188078e-02, -9.82021419e-02, -1.21286341e-01, -5.92211352e-02,  7.61739757e-03, -1.23301971e-01, -1.30945603e-01,  3.00826175e-03, -2.21187025e-01,  1.70966260e-01, -6.86250668e-02, -2.11756519e-02, -1.07194057e-01,  8.24437117e-02,  1.90861706e-01,  3.74818653e-02, -3.93005054e-02, -8.37096398e-02, -1.43754197e-01,  3.59638668e-03, -2.68973042e-01,  2.85824738e-02, -1.01002894e-01, -1.31041156e-01,  1.08792654e-01, -1.23616796e-01, -1.24630927e-01, -1.42895641e-01, -8.22576686e-02, -4.43369729e-02, -5.64209241e-02, -1.70541998e-01, -3.01820829e-01, -7.86690139e-02, -4.32737455e-02, -3.97216501e-02, -3.47223882e-02, -1.13922018e-01, -3.32999166e-02,  3.04781649e-02,  7.22444284e-03,  1.41110025e-02,  2.32595505e-04, -2.52066334e-02, -2.90071021e-02, -3.41371992e-02, -3.09320904e-02,  2.69921689e-03, -1.38759954e-03, -5.04564212e-03, -1.84713835e-02, -3.40416513e-02,  3.69149732e-03,  7.71122096e-04, -1.62114531e-02, -1.88392872e-03,  1.12751633e-02,  2.91760854e-02,  1.30453353e-03, -1.50618788e-02, -2.94648950e-02, -1.65051580e-02,  8.27576004e-05, -1.52051089e-02, -9.06594576e-03, -1.93731388e-02,  8.50799358e-03, -1.77218419e-02,  6.98263592e-03, -2.35411876e-03, -1.62674703e-02, -8.05252739e-03,  6.23661286e-03, -1.35450603e-02, -7.95711207e-03, -4.81982701e-01]
w1|7|[  1.18841094e-01,  3.29036480e-02,  4.33264707e-01,  2.13646915e+00,  2.06583738e-01,  2.20874822e-01,  1.56337430e-01, -1.92201473e-01, -9.56501115e-02, -6.13037968e-02,  4.39175913e-03, -3.25587207e-02, -1.01134484e-02, -1.74450087e-01, -2.79692246e-02, -6.57669286e-02, -5.23435519e-02, -9.00322309e-02, -9.31842929e-02, -5.78555985e-02, -8.31482438e-02,  1.79070729e-02, -8.35836586e-02, -1.30651723e-01, -1.89970509e-01, -1.39151058e-01,  2.07596475e-01,  2.43198241e-02, -1.73909324e-01, -8.46623903e-02,  1.37115067e-02,  1.97295610e-01,  9.58342039e-02, -1.58264869e-01, -2.01673134e-03, -1.09975444e-01,  5.45480596e-02, -1.83779880e-01, -7.82622606e-02, -2.52630815e-02, -1.05459202e-02, -3.75053981e-02, -1.31592337e-01, -1.62760716e-01, -7.19830481e-02, -3.58140436e-02, -1.06728135e-01, -9.52845223e-02, -1.68313326e-01, -3.24047451e-01, -4.49480647e-02,  9.64625881e-03, -5.44158029e-02, -1.26181127e-01, -7.52450753e-02, -6.04343846e-02,  8.26839899e-02,  1.89714903e-02,  1.04081658e-02,  1.82131916e-02, -1.89243744e-02, -8.46872939e-03, -1.58917460e-02, -1.08030442e-01, -2.22234464e-05,  2.42127367e-02,  2.77318837e-02,  1.91238614e-02, -1.87170791e-01,  5.91174531e-02,  1.87137327e-02, -5.12004259e-02,  5.16759559e-03,  8.09493830e-02,  6.26907021e-02,  8.42597400e-02, -3.54194699e-02, -5.01242172e-02, -2.94736669e-02,  2.66883034e-02, -3.34968596e-02, -9.27812171e-03, -7.18851422e-03,  3.60529000e-02, -3.27461708e-03,  2.31941577e-02,  1.19034020e-02, -8.23642249e-02, -3.83144320e-02,  3.01051968e-02, -4.54947319e-02, -4.79472423e-03, -4.87312402e-01]
w1|8|[  1.36711142e-01, -1.93981105e-02,  3.10768147e-01,  3.08643057e-01,  1.45808266e-01,  1.47812861e-01, -1.38851784e-01, -6.06253082e-02, -1.03317447e-01, -1.12878756e-01, -1.07310716e-01,  4.27356471e-02,  2.68360816e-02, -1.06796468e-02,  5.70893012e-04, -2.84842396e-01,  1.69072194e-01, -6.20411225e-02, -1.00412024e-01, -1.16372729e-01, -5.45750461e-02,  8.97562597e-04, -1.42076808e-01, -1.51062698e-01,  4.87100821e-03, -2.14989567e-01,  2.04885831e-01, -7.59780166e-02, -5.44756047e-02, -1.10953096e-01,  5.20292261e-02,  2.06218973e-01,  3.14011273e-02, -2.93764719e-02, -6.29931328e-02, -1.48246218e-01, -1.00846488e-02, -2.54613965e-01,  4.27373289e-02, -7.80474176e-02, -1.39819945e-01,  1.32716693e-01, -1.20755665e-01, -1.48487417e-01, -1.37130511e-01, -5.24232728e-02, -4.53061761e-02, -6.00313150e-02, -1.57212247e-01, -2.82746340e-01, -1.08304077e-01, -2.80770267e-02, -1.22844603e-02, -2.14244005e-02, -1.06237184e-01, -1.55588524e-02,  6.52850788e-03, -1.75984775e-02, -1.40971884e-02,  8.15709137e-03, -9.91118383e-03, -1.83102268e-02, -1.26280675e-02, -2.52460597e-02,  7.54987852e-03,  1.02880680e-02,  6.57306422e-03,  8.21246741e-03,  2.19850238e-03,  1.55269135e-02, -1.19815116e-02,  5.73776122e-03, -9.74058419e-03,  2.50498360e-02,  5.35516624e-03,  9.43901579e-03,  2.70819516e-03, -2.68333481e-02, -9.91508880e-03,  3.40810767e-03, -1.25716809e-03, -1.11208617e-02, -2.42452271e-02,  1.56564950e-02, -1.36933545e-02, -1.00727534e-02,  3.82731544e-03, -3.12134221e-04,  9.05492977e-05,  7.80619747e-03,  7.67005783e-04,  3.41431039e-03, -4.52540318e-01]
w1|9|[  1.24211086e-01,  5.85769493e-02,  4.85668526e-01,  2.18422877e+00,  1.91125130e-01,  2.52025428e-01,  9.54183568e-02, -1.47967957e-01, -6.92928606e-02, -2.43206426e-02, -2.28089124e-02, -7.81940199e-03, -1.35249126e-02, -1.77448289e-01, -3.25785862e-02, -6.94657104e-02,  4.19294915e-02, -1.25978202e-01, -1.24308720e-01, -1.05346625e-01, -7.41991888e-02,  4.76794328e-03, -9.65441503e-02, -1.26743968e-01, -1.06931919e-01, -1.18315586e-01,  2.00069586e-01,  3.50974072e-03, -1.47474569e-01, -6.14973328e-02,  1.03708047e-02,  1.84428312e-01,  5.88279414e-02, -1.61697273e-01,  4.33634675e-03, -1.10963406e-01,  5.63296936e-02, -1.50707914e-01, -8.53123016e-02, -1.97933148e-02, -5.53163879e-02,  3.30100963e-02, -1.18884055e-01, -2.07628382e-01, -2.42289287e-02,  1.49684858e-02, -8.64729721e-02, -1.09198521e-01, -1.92404207e-01, -2.33640594e-01,  1.56627696e-02,  1.36205915e-02, -4.44212082e-02, -1.36335005e-01, -8.69134548e-02, -5.05145409e-02,  1.00881454e-01,  5.28334407e-03,  1.84316869e-02,  1.75779112e-02, -1.73938997e-02, -1.50080595e-02, -2.43350329e-02, -1.04345634e-01, -1.76696848e-02,  2.51159719e-02,  1.81203449e-02,  5.96102250e-03, -1.80206751e-01,  5.79256506e-02,  1.22092757e-03, -6.16154041e-02,  1.35696978e-02,  8.19651470e-02,  6.13105658e-02,  9.46037027e-02, -4.78315509e-02, -4.89253746e-02, -1.76863540e-02,  1.49545601e-02, -3.29330079e-02, -7.84948247e-03, -7.88153904e-03,  3.93046343e-02, -1.12904700e-02,  2.66081436e-02,  5.45372395e-03, -1.07108586e-01, -2.24362668e-02,  4.22748012e-02, -3.25477990e-02,  2.05572813e-02, -4.54222723e-01]
w1|10|[ 0.27659117,-0.08340561, 0.27527703,-0.52433691, 0.09759282, 0.18731683,-0.12463263,-0.05877068,-0.07113491,-0.14571651,-0.06082044, 0.05343769,-0.0400361 , 0.07163349, 0.02596288,-0.26980804, 0.27174215,-0.09945092,-0.06161952,-0.13283207,-0.06989416,-0.01680299,-0.20245499,-0.14749115, 0.06946645,-0.17917251, 0.30937282,-0.00213151,-0.1606707 ,-0.14078672,-0.01615803, 0.23841296, 0.12500361, 0.02373482,-0.06735387,-0.19341698,-0.02239769,-0.27630014, 0.08927269,-0.02856078,-0.18527532, 0.19348382,-0.1617612 ,-0.2032148 ,-0.04242643,-0.05030996,-0.04991882,-0.0293698 ,-0.11549038,-0.25419946,-0.15970747, 0.02623107, 0.02392967, 0.04762079,-0.08608914, 0.00632003,-0.03857543,-0.0173677 ,-0.04946215,-0.03007175, 0.01113349,-0.01509111, 0.00412119, 0.03424745,-0.00500843, 0.01857533,-0.03694702,-0.02737498, 0.07877348,-0.00304012,-0.03492069, 0.01699638,-0.01884301, 0.00750173,-0.02302058,-0.00483395, 0.00356368, 0.00212791,-0.01377565,-0.01522329,-0.00219571,-0.02287555,-0.00682437,-0.00721012, 0.00941508,-0.01053258, 0.01104831, 0.02274795,-0.00286817,-0.02754798, 0.01798606, 0.00273138,-0.36588515]
w1|11|[  5.07726603e-02,  2.71092636e-02,  3.40954184e-01,  9.95666953e-01,  2.09512993e-01,  8.64553517e-02, -1.51207879e-01, -5.37465379e-02, -1.31240963e-01, -1.00064138e-01, -5.10074743e-02,  3.32233968e-02,  6.91922570e-02, -5.50227752e-02, -1.64346472e-02, -2.79211799e-01,  1.43969694e-01, -6.93766724e-02, -1.00960461e-01, -1.49771727e-01, -6.03728361e-02, -4.05128850e-03, -9.19246087e-02, -1.31798640e-01, -2.51624032e-02, -2.27785423e-01,  1.13936371e-01, -7.11913363e-02,  1.61977056e-02, -1.10280114e-01,  9.05893940e-02,  1.76276378e-01,  3.40521375e-02, -8.30549401e-02, -7.97843603e-02, -1.22331092e-01,  1.93234567e-02, -2.46010776e-01,  4.02250656e-02, -1.24008689e-01, -1.23502707e-01,  1.12368302e-01, -1.19979260e-01, -1.07202942e-01, -1.25451677e-01, -1.13702193e-01, -5.16016510e-02, -7.31976750e-02, -1.91736090e-01, -3.14782549e-01, -1.85490117e-02, -7.34322249e-02, -1.74084913e-02, -4.22047352e-02, -1.27733772e-01, -3.42364643e-02,  2.92670594e-02,  2.58847557e-02,  3.36245247e-02,  1.79956518e-02, -1.39241731e-02, -1.64163249e-02, -3.58161903e-02, -6.37389691e-02, -7.22516205e-03, -9.27017291e-03,  2.20718468e-02, -4.58699969e-03, -5.52073933e-02,  3.35374399e-02,  1.10970015e-02, -3.22903566e-02,  1.30845305e-02,  2.89344079e-02,  4.80757007e-02,  1.70661411e-02,  3.92851751e-04, -4.04513508e-02, -3.07989552e-02,  1.06753368e-02, -1.50922420e-03,  2.75145353e-02,  1.18454134e-02,  2.11760462e-02,  1.24058110e-03,  2.55605561e-02, -2.02233676e-02, -5.24775847e-02, -2.41260600e-03,  1.70200565e-02, -2.62918926e-02,  5.27885563e-04, -4.91138484e-01]
w1|12|[  5.99717958e-02,  4.95869361e-02,  3.88131419e-01,  1.45503979e+00,  2.01847969e-01,  1.23513741e-01, -6.78631111e-02, -3.59263268e-02, -1.96682493e-01, -8.64561112e-02, -2.59675630e-02,  1.64953358e-02,  7.42980514e-02, -1.26535438e-01, -6.42000715e-03, -2.55078293e-01,  6.74785791e-02, -4.58192690e-02, -7.10967484e-02, -1.07906392e-01, -9.61728849e-02,  6.95578958e-03, -6.71143900e-02, -1.46469996e-01, -3.93799966e-02, -2.03154779e-01,  5.18499890e-02, -4.44845432e-02, -2.91493773e-02, -1.28963414e-01,  9.45146356e-02,  1.71054993e-01,  9.25470719e-02, -9.91391912e-02, -8.19909069e-02, -1.18754192e-01,  3.91251094e-02, -2.36438835e-01,  4.12064436e-02, -9.77706286e-02, -6.76460998e-02,  3.37301652e-02, -1.51203084e-01, -9.11404798e-02, -1.17888061e-01, -1.46552279e-01, -4.91443410e-02, -1.04339146e-01, -1.39669701e-01, -3.60696858e-01, -2.94106915e-02, -7.76152746e-02, -3.46527804e-02, -9.32199869e-02, -1.24307894e-01, -3.81297260e-02,  6.08825660e-02,  2.44643936e-02,  3.17226060e-02,  3.00002051e-03, -1.68965573e-02, -2.25564562e-02, -3.87479739e-02, -9.12863846e-02, -2.54875165e-03, -3.88558366e-02,  3.23394891e-02, -8.26397996e-04, -1.23577573e-01,  4.92523218e-02,  2.00063147e-02, -2.36941543e-02,  2.13605821e-02,  3.07083783e-02,  4.64344302e-02,  4.88642799e-02, -3.82327076e-02, -6.70086041e-02, -7.32349011e-02,  1.87815526e-02, -1.24813526e-02,  1.66756267e-03, -5.67326407e-03,  4.87466178e-02,  1.63079037e-02,  2.06734581e-02, -1.04854003e-02, -6.63247818e-02, -4.04917347e-03,  5.30176208e-02, -1.67693848e-02, -1.15121966e-02, -5.06647280e-01]
w1|13|[  1.44850506e-01,  3.73148427e-02,  5.65429598e-01, -9.00810097e-01,  1.56660144e-01,  4.88433684e-02, -2.69368209e-02, -1.14626316e-01, -4.85442666e-02, -1.04455757e-01, -2.07640652e-02,  2.08857976e-02,  1.11571888e-01,  1.00420308e-01,  1.26896424e-02, -1.71079788e-01,  2.60197651e-01, -2.64921057e-02, -1.05148527e-02, -1.17300815e-01, -3.37322318e-02, -4.93989247e-03, -1.56459041e-01, -1.39874431e-01,  2.52363462e-02, -2.22881874e-01,  2.13183178e-01, -1.21622222e-01,  1.41700917e-01, -7.80383062e-02,  1.28400531e-01,  3.02225694e-01,  9.11867007e-02,  7.20125925e-02, -1.26460007e-01, -1.49673658e-01, -2.65209231e-02, -2.59000064e-01,  4.29117689e-02,  9.85756891e-02, -1.29080163e-01,  2.67013672e-01, -1.20028598e-01, -1.09140024e-01,  1.58884094e-01, -9.82310198e-02, -1.29159701e-02,  1.75275423e-03, -9.17383224e-02,  3.14896161e-02,  1.23876139e-01, -9.82420661e-02,  3.40687532e-02,  5.61057745e-02, -1.41520848e-01,  2.11084978e-02, -5.16695310e-02, -9.88800440e-03,  2.97105552e-02, -1.05559500e-02, -2.13806137e-02, -2.39651504e-02, -1.99167303e-02,  3.50636457e-02, -2.35780988e-04, -2.17238998e-02, -1.01659668e-02, -1.76250958e-02,  1.02625697e-01, -3.82018190e-03, -5.56960321e-03,  2.91535674e-02, -5.34897719e-03,  5.00547088e-03, -2.39300220e-02, -3.87428201e-02,  2.00073900e-02, -8.81450858e-04,  1.11181195e-02, -9.88921073e-03,  1.87045637e-02, -3.01398704e-02,  3.04542810e-03, -3.63636288e-02,  3.06839515e-02, -1.19661528e-02, -2.65547762e-02,  2.94562040e-02,  1.87362579e-02, -1.00928352e-02,  2.67439370e-02,  7.80355551e-03, -7.05134015e-02]
w1|14|[ 0.0989156 ,-0.00340571, 0.3188025 , 0.49039787, 0.17027857, 0.11985032,-0.12408596,-0.06846339,-0.14421147,-0.11949551,-0.08858035, 0.02811634, 0.04734889,-0.02455384,-0.00922108,-0.31025603, 0.14848509,-0.06077552,-0.09361883,-0.11999384,-0.04782672, 0.00554826,-0.11575112,-0.1291883 , 0.01891453,-0.21383079, 0.18171059,-0.06757313,-0.0252882 ,-0.11048993, 0.06330441, 0.20678468, 0.04517783,-0.04766306,-0.07080814,-0.12315862,-0.00512804,-0.25475448, 0.04621124,-0.10469187,-0.13661027, 0.13017537,-0.1257259 ,-0.11993759,-0.15402464,-0.05438796,-0.03641294,-0.0631859 ,-0.17349514,-0.29961075,-0.06914033,-0.04376597,-0.01918802,-0.02867788,-0.10010653,-0.0298824 , 0.02309748, 0.00355377, 0.00347102, 0.00379789,-0.02570712,-0.00943781,-0.01352009,-0.01929777,-0.01729576,-0.00141539, 0.00402276, 0.0098096 ,-0.03498349, 0.00968502,-0.00341994, 0.00257304, 0.00352032, 0.0118185 , 0.00870089, 0.0139599 ,-0.01356124,-0.0110992 ,-0.00117688, 0.01473005,-0.01999213, 0.00156712,-0.00057933, 0.00513457,-0.01257748, 0.00070315,-0.00291142,-0.01880472,-0.00931576, 0.0217955 ,-0.01324801,-0.00310438,-0.49079278]
w1|15|[  5.74888618e-02,  5.69893233e-02,  4.37692365e-01,  1.42276514e+00,  2.03923178e-01,  1.24911298e-01, -7.90049513e-02, -5.39232841e-02, -1.61116321e-01, -7.22027905e-02, -4.12155040e-02, -3.96074201e-03,  4.41448562e-02, -1.00939805e-01, -7.56856660e-03, -2.02501141e-01,  1.01784953e-01, -8.25121479e-02, -1.04197547e-01, -1.14504757e-01, -6.56260034e-02,  1.93978168e-02, -7.48957701e-02, -1.62229383e-01, -4.25464298e-02, -1.95716951e-01,  8.93920929e-02, -2.34376665e-02, -3.69887118e-02, -9.70492347e-02,  7.54016973e-02,  1.90314304e-01,  4.62858657e-02, -1.31283705e-01, -1.05299687e-01, -1.12104667e-01,  3.87241912e-02, -2.02553284e-01,  1.11381758e-02, -7.57225273e-02, -1.15076800e-01,  6.07847584e-02, -1.34246636e-01, -1.05677395e-01, -1.29734372e-01, -1.16176810e-01, -6.04292985e-02, -9.76032355e-02, -2.12705909e-01, -2.62777629e-01,  2.68633272e-03, -5.75432824e-02, -4.29315563e-02, -8.41961803e-02, -1.06046102e-01, -3.19064482e-02,  6.89000564e-02,  2.21816032e-02,  2.89996804e-02,  1.25925409e-02, -2.14184854e-02, -2.14753976e-02, -3.55320435e-02, -8.10555528e-02,  2.84294157e-03, -1.02605014e-02,  4.20507264e-02,  1.12279014e-02, -1.07863711e-01,  3.35397111e-02,  1.85436994e-02, -4.47170081e-02,  2.12684278e-02,  4.67761087e-02,  4.72981061e-02,  2.26611441e-02, -3.03871178e-02, -3.65222594e-02, -2.59657221e-02,  8.36508862e-03, -9.96217497e-03,  4.01694327e-03,  2.87589456e-03,  1.38802555e-02,  1.22250555e-03,  1.08913659e-02, -1.25986658e-02, -5.07878004e-02, -2.39823463e-02,  1.33959491e-02, -1.22320336e-02,  1.47951253e-02, -5.00339466e-01]
w1|16|[  1.07371367e-01, -5.36507059e-03,  3.28870171e-01,  4.89881425e-01,  1.55689217e-01,  1.05213712e-01, -1.27498282e-01, -6.91958931e-02, -1.29994902e-01, -1.10248085e-01, -6.80126793e-02,  4.55126566e-02,  3.76276026e-02, -3.06880419e-02,  4.06490995e-03, -2.64972151e-01,  1.50511286e-01, -6.33746010e-02, -8.48121132e-02, -1.20552667e-01, -4.90019868e-02,  1.31716565e-02, -1.33322577e-01, -1.31682538e-01,  2.06535022e-02, -2.31107597e-01,  1.85475365e-01, -8.89276609e-02, -4.18866533e-02, -1.10567151e-01,  5.14565949e-02,  2.14651475e-01,  3.20958306e-02, -5.57554344e-02, -8.14554924e-02, -1.34508321e-01,  1.01140832e-03, -2.74777009e-01,  3.37947951e-02, -8.40686822e-02, -1.36939258e-01,  1.53152945e-01, -1.24464799e-01, -1.47178516e-01, -1.40995575e-01, -7.15861483e-02, -4.24047876e-02, -6.27084550e-02, -1.75253594e-01, -2.78610249e-01, -8.95857646e-02, -3.14665857e-02, -2.80096399e-02, -2.32740860e-02, -1.00812965e-01, -1.17545697e-02, -3.33782217e-03, -7.65048494e-03,  5.41850130e-03,  2.46623427e-03, -1.30726443e-02, -2.83255508e-02, -2.79495143e-02, -4.43571686e-02, -1.71416510e-02, -1.37025362e-02,  7.18376210e-03,  1.00266320e-02, -2.71315009e-02,  1.03508379e-02, -2.52337383e-02, -1.97788238e-02, -5.45924209e-04,  1.55956679e-02,  1.54498077e-02,  1.64752972e-02, -1.58553804e-02, -7.99152148e-03, -2.19896558e-02,  6.72563979e-03, -5.47990823e-03, -6.97099004e-03, -5.02742640e-03,  2.22814795e-02, -9.63782187e-03,  1.22173089e-04, -2.09379246e-02, -2.07070829e-02, -3.01732791e-05,  3.76563030e-04, -5.51355700e-03,  8.96606223e-03, -4.75470022e-01]
w1|17|[  1.69326131e-01,  4.81306617e-02,  4.68698438e-01,  2.51399413e+00,  2.11029045e-01,  2.96240697e-01,  1.92234413e-01, -1.17921317e-01, -7.43132842e-02, -3.48806569e-02, -2.31584107e-03, -4.28090361e-02, -1.16143803e-01, -2.05790052e-01, -5.05455081e-02, -3.55713730e-02, -1.10209167e-01, -1.35703240e-01, -1.28103954e-01, -3.37596647e-02, -4.40201830e-02,  2.29580504e-02, -7.27211337e-02, -1.05310059e-01, -1.39536980e-01, -1.12286585e-01,  2.37260007e-01,  8.33520009e-02, -2.99711794e-01, -8.55780016e-02, -9.16382352e-03,  1.75929178e-01,  9.48465278e-02, -1.96239823e-01, -1.85075280e-02, -1.07870291e-01,  4.72354236e-02, -1.52803492e-01, -9.58558273e-02,  1.80906969e-02, -2.82590285e-02, -8.59610715e-02, -1.31009114e-01, -1.79991249e-01, -1.28635123e-01,  1.82047891e-02, -1.06088587e-01, -9.78927838e-02, -1.44426544e-01, -3.17477790e-01, -8.61019906e-02,  8.72467591e-02, -5.99016628e-02, -1.36390276e-01, -7.01770970e-02, -6.12991523e-02,  9.60068335e-02,  7.11900181e-03,  9.57484852e-04,  2.06821971e-02, -3.12146705e-02, -1.12729290e-02,  3.43422044e-03, -1.16584221e-01,  1.35021861e-02,  3.07492359e-02,  2.49079733e-02,  6.74763560e-03, -2.21262963e-01,  6.83179302e-02,  1.25290182e-02, -6.85113755e-02,  3.10295871e-02,  9.10502566e-02,  6.43559751e-02,  9.31869974e-02, -5.61607809e-02, -5.82899476e-02, -3.57517462e-02,  1.28715883e-02, -4.21012768e-02,  2.95697387e-03, -2.24050487e-03,  6.20392698e-02, -1.71057759e-02,  4.46419814e-02,  2.46277786e-03, -1.15313213e-01, -2.42701661e-02,  3.74605991e-02, -1.66521324e-02,  4.94200387e-03, -4.71815307e-01]
w1|18|[ 0.25256964,-0.08134221, 0.29631849,-0.61679543, 0.10753931, 0.16411732,-0.11632543,-0.06290369,-0.09119059,-0.13370334,-0.07302071, 0.07166817,-0.02121909, 0.08822124, 0.01381322,-0.23316524, 0.2535983 ,-0.07825252,-0.05591175,-0.11517479,-0.02619   ,-0.01027337,-0.19842343,-0.13163992, 0.05463578,-0.17662192, 0.30009497,-0.02367057,-0.12488391,-0.11315295,-0.00216642, 0.25283559, 0.12813571, 0.02401076,-0.07269771,-0.19802179,-0.0323537 ,-0.24009642, 0.08529377,-0.0062776 ,-0.16643314, 0.19501062,-0.15776237,-0.18416108,-0.02876614,-0.04099926,-0.04695076,-0.02619374,-0.08149756,-0.23998397,-0.12992635,-0.00607546, 0.0265876 , 0.02912543,-0.09563343,-0.00878346,-0.03397719,-0.01257137,-0.03369303,-0.01886755,-0.02053288,-0.00226976,-0.00287541, 0.00935404,-0.00103433, 0.00227917,-0.01755339,-0.02167783, 0.08620482, 0.0013499 ,-0.00626929, 0.03345963,-0.02905332, 0.01009583,-0.02282078,-0.00487617, 0.00515655, 0.00906811,-0.0067827 ,-0.00358854, 0.00770595,-0.0257147 ,-0.0046971 ,-0.00311938,-0.01002413,-0.00453293, 0.01481099, 0.03460988, 0.00589708,-0.01302876, 0.03374976, 0.00351383,-0.33704779]
w1|19|[  8.69653836e-02,  5.79859596e-03,  3.34846480e-01,  7.97304908e-01,  1.64001412e-01,  1.10247818e-01, -1.36555043e-01, -5.79798395e-02, -1.17606827e-01, -9.72831731e-02, -7.20722228e-02,  2.29564629e-02,  5.71277028e-02, -5.69681455e-02, -3.05128949e-02, -2.68308909e-01,  1.23425404e-01, -5.55650866e-02, -8.45393127e-02, -1.26915033e-01, -5.99889073e-02, -5.26898344e-03, -1.00395212e-01, -1.43912085e-01, -1.95563486e-03, -2.28709570e-01,  1.40491034e-01, -7.08892361e-02, -1.84960078e-02, -1.18555034e-01,  7.75598062e-02,  1.76151516e-01,  4.20990053e-02, -6.36708195e-02, -7.66790818e-02, -1.35490689e-01,  2.17087582e-02, -2.47749336e-01,  3.85482201e-02, -1.01040557e-01, -1.02225986e-01,  1.04277903e-01, -1.20192826e-01, -1.09616139e-01, -1.29732742e-01, -9.34719038e-02, -3.78741632e-02, -8.96646702e-02, -1.50826519e-01, -3.05833234e-01, -6.53490255e-02, -3.92514392e-02, -2.34231250e-02, -3.91888865e-02, -1.21464473e-01, -3.35011541e-02,  1.46281458e-02,  7.15718439e-03,  1.50780457e-02,  3.57618683e-04, -2.81738596e-02, -2.35180971e-02, -3.39866914e-02, -4.71267787e-02, -1.17865208e-02, -2.35484167e-02, -1.35109746e-03,  6.00915435e-03, -4.46470941e-02,  8.85808906e-04,  8.58552080e-03, -2.69605608e-02, -2.62452616e-03,  2.99057393e-02,  2.23946846e-02,  3.02657579e-02, -2.16429866e-02, -2.86211146e-02, -3.26220493e-02,  5.81580075e-03, -1.18977999e-02, -5.93802099e-03, -4.14896009e-03,  1.07340791e-02,  1.15652075e-02, -4.29537043e-04, -1.94686023e-03, -3.17075021e-02, -2.46364331e-02,  1.71674772e-02,  1.95080272e-04,  3.15218484e-03, -4.72538479e-01]
w1|20|[  4.63398522e-01, -1.49444979e-01,  1.12174078e+00, -1.39648423e+00,  2.05903115e-02,  2.44833532e-01,  7.96641083e-01, -6.14229820e-01, -4.42307241e-01,  1.24924590e-01,  4.09518362e-01, -4.43694289e-01,  5.10910614e-02,  1.64163493e-01,  3.70603893e-02,  1.23311678e-01,  2.13763770e-02, -1.70053150e-01,  4.28401892e-02,  7.17251918e-02, -9.45805713e-02,  5.53564995e-02,  5.23866650e-02, -1.67062800e-01, -8.17473321e-01, -2.20491278e-01,  1.82006950e-01,  2.63841090e-01, -1.68133125e-01,  1.50189789e-01,  1.38842014e-01,  7.00003464e-01,  2.40019136e-02,  9.71790658e-02,  3.80038427e-02, -1.91131649e-01, -3.98937948e-02, -8.33908987e-02,  9.68966486e-02, -2.82302340e-02,  2.26533225e-02, -7.73870991e-02,  1.21007989e-01,  1.06722091e-02,  1.67133695e-01,  3.61926043e-02, -1.78733686e-01, -2.17321887e-03, -3.18415364e-01,  3.48035108e-01,  4.96705194e-01, -4.26128060e-01,  5.37952941e-02,  8.13237063e-02, -4.19305695e-01, -3.51148383e-02, -6.68806884e-02,  6.82814389e-02, -1.10609605e-02, -5.97196250e-02,  3.42277428e-02, -1.95956387e-01,  2.19790128e-02,  1.38508759e-01,  1.40774677e-01, -1.18503330e-01, -8.61952254e-04, -5.79961988e-03,  1.35055455e-01,  2.83344361e-02,  2.31349518e-02,  1.07906186e-01,  2.80095166e-02,  4.05677652e-02,  1.17996248e-01, -4.34695949e-02, -3.20177342e-03,  6.89203001e-02,  8.37420894e-02,  3.71638458e-02, -8.53275748e-04, -2.20755565e-01, -2.86549992e-03, -1.04177672e-01,  3.88589976e-02,  5.11292913e-02, -1.11027290e-01,  9.60267845e-03, -4.57464775e-03, -4.43859313e-02,  3.34981156e-02, -4.47745283e-03,  4.83220989e-02]
w1|21|[  5.30255341e-01, -1.65186984e-01,  9.01165462e-01, -1.39099283e+00, -1.89941716e-02,  4.57088671e-01,  6.80456138e-01, -3.08025720e-01, -7.05080202e-01, -1.02848087e-01,  2.84998547e-01, -2.11582277e-01,  1.08040975e-01,  1.46707648e-01,  1.98524642e-02, -1.90222942e-01, -2.59361465e-01,  5.22020094e-02,  5.83792345e-02,  3.45055842e-01, -1.04927381e-01,  6.74747357e-02,  2.11076512e-01, -1.54991582e-01, -7.57331041e-01, -3.08348253e-01, -3.35034172e-01,  3.54107671e-01, -3.27294641e-01, -5.15520683e-02,  1.41811452e-01,  7.68099763e-01,  5.22942223e-01,  7.65273340e-02,  5.71767969e-03, -1.38574512e-01, -3.43398383e-02, -2.73383485e-01,  4.48047250e-01,  6.32856211e-02,  2.03122956e-01, -5.04549392e-01,  6.70647733e-02,  3.50716562e-01, -8.19326197e-02, -3.82024093e-02, -1.46452875e-01, -1.14588437e-01,  1.79146118e-01, -1.78243867e-01,  3.22920396e-01, -3.44886535e-01,  5.02364190e-02,  8.68034656e-02, -4.19804936e-01, -3.99928627e-02, -6.77241414e-02,  1.48588039e-01, -2.38875190e-02, -5.58429780e-02,  3.50558279e-02, -1.50008813e-01,  7.74088170e-03,  1.37737763e-01,  1.60904957e-01, -1.72617025e-01,  1.50697216e-02, -4.33129877e-02,  1.42986299e-01,  1.04383107e-01,  5.05498106e-02,  1.29120120e-01, -7.67468988e-03,  1.28781152e-05,  1.79011734e-01, -1.05886755e-01,  3.64746015e-03,  3.50145485e-02,  6.25235524e-03,  5.96295902e-02, -1.69204742e-02, -2.02060445e-01, -1.13365390e-02, -8.82021284e-02,  5.79785675e-02,  7.36355067e-02, -1.05138136e-01,  2.34677497e-02,  1.67925398e-02,  8.83884701e-04,  4.51974030e-02, -4.80156884e-03, -4.87187791e-03]
w1|22|[  2.77143809e-01, -1.15998897e-01,  2.63210912e-01, -2.57069297e-01,  7.76761394e-02,  2.05293318e-01, -1.28238571e-01, -7.16829646e-02, -5.18163402e-02, -1.31662705e-01, -1.01954001e-01,  4.37418366e-02, -3.87523087e-02,  5.70238586e-02,  2.76712628e-02, -3.00418934e-01,  2.63961123e-01, -7.08151162e-02, -6.30649878e-02, -1.67705891e-01, -7.87760274e-02,  7.17965085e-03, -1.90364305e-01, -1.18926145e-01,  5.89771735e-02, -1.80325504e-01,  2.69926701e-01, -1.59271002e-02, -1.47344415e-01, -1.17446347e-01, -3.43834981e-02,  2.52872946e-01,  1.18871745e-01,  1.97593833e-02, -4.35253361e-02, -1.89848186e-01, -1.03446088e-02, -2.78013019e-01,  9.12196821e-02, -7.43938912e-02, -1.84577833e-01,  1.81654292e-01, -1.43510493e-01, -2.15199860e-01, -1.09626046e-01, -1.42216283e-02, -6.78709896e-02, -4.22061268e-02, -1.49295616e-01, -2.64498704e-01, -1.97402212e-01,  3.13105011e-02,  9.76842582e-03,  2.83033566e-02, -9.15394473e-02,  2.62915125e-04, -2.17610825e-02, -1.05248817e-02, -4.08209736e-02, -1.17687118e-02, -1.41114689e-02, -2.39520407e-03,  1.10314246e-03,  1.54888875e-03,  3.48020706e-04, -4.75123507e-03, -7.35472805e-03, -2.58821769e-02,  7.28965458e-02,  1.00177685e-02, -2.51611614e-02,  5.61328272e-03,  4.37376736e-03,  1.00839338e-02, -4.98446284e-02, -4.36217954e-03, -1.18377113e-02,  1.57248998e-02, -1.31856809e-02, -5.92926737e-03,  6.62811447e-03, -1.00325854e-02, -3.58007479e-03, -7.62351316e-03, -1.37839208e-03, -9.94801924e-03, -1.35978302e-03,  7.01256868e-03, -6.88873233e-03, -1.60566224e-02,  1.98642261e-03,  2.31874148e-02, -4.15651302e-01]
w1|23|[ 0.04549086, 0.03234767, 0.36723644, 0.98597877, 0.19022147, 0.08302968,-0.13808791,-0.04197044,-0.18148504,-0.09500918,-0.06138164, 0.03001102, 0.06230301,-0.07962233,-0.02097123,-0.28671833, 0.15056634,-0.08100646,-0.09605877,-0.12546521,-0.06969136, 0.00101528,-0.09863803,-0.16121516,-0.01279831,-0.22463806, 0.1127628 ,-0.06442764, 0.00195144,-0.11545404, 0.09284096, 0.19526959, 0.00758081,-0.07765105,-0.08386366,-0.10408894, 0.01296815,-0.24788121, 0.0593314 ,-0.12333366,-0.13187839, 0.11103479,-0.13268735,-0.08755245,-0.15265748,-0.10719942,-0.06713231,-0.10495202,-0.20324679,-0.28421513,-0.02386019,-0.07334225,-0.02804433,-0.07965033,-0.10233239,-0.02720148, 0.0350088 , 0.00508374, 0.02053236,-0.00499476,-0.00798513,-0.0269251 ,-0.04421541,-0.06590971,-0.01588444,-0.00584347, 0.01604026,-0.01367206,-0.06838481, 0.0249416 , 0.01384511,-0.02239872, 0.0015903 , 0.03056708, 0.02449421, 0.014631  ,-0.01421294,-0.03316874,-0.02042329, 0.00758143,-0.01183561, 0.01452025,-0.00176608, 0.02244719,-0.00842619, 0.02307826,-0.02348246,-0.0285554 ,-0.01762817, 0.01791015,-0.01118668, 0.00487952,-0.51668808]
w1|24|[  1.55255608e-01,  5.63683128e-02,  4.63586594e-01,  1.87281469e+00,  1.72196635e-01,  2.87834781e-01,  7.05099894e-02, -6.85368998e-02, -7.59891189e-02, -6.82978429e-02, -5.29066662e-02,  3.17998618e-03,  5.66467387e-03, -1.52036306e-01, -2.12103433e-02, -1.03329755e-01,  6.58245720e-02, -9.20224424e-02, -1.16424723e-01, -7.91140801e-02, -3.80276592e-02,  1.03391579e-02, -6.67480145e-02, -1.04676030e-01, -8.18626656e-02, -1.75021016e-01,  1.88002261e-01,  3.51033725e-02, -1.08960212e-01, -1.01061824e-01,  3.19142671e-02,  1.77422487e-01,  8.71372196e-02, -1.47560413e-01, -3.83365806e-02, -1.05342802e-01,  4.37973336e-02, -2.00242481e-01,  1.85715244e-02, -2.25755622e-02, -7.28998470e-02,  2.86557866e-02, -1.14692837e-01, -1.29510001e-01, -5.73437990e-02, -2.26611601e-03, -8.39008003e-02, -8.96683878e-02, -8.16989251e-02, -2.85777018e-01,  2.99248496e-02,  2.42791644e-02, -3.85519670e-02, -9.43173322e-02, -1.07012441e-01, -4.05063267e-02,  9.12554017e-02,  1.19730468e-02,  1.71604028e-02,  1.81488695e-02, -2.94377707e-02,  2.19854670e-03, -1.26484368e-02, -9.82867839e-02,  2.00997332e-02,  1.95631045e-02,  1.70021232e-02,  1.63334634e-02, -1.49039210e-01,  4.45094823e-02,  1.60616480e-02, -5.01651363e-02,  8.14712439e-03,  4.65510551e-02,  6.70306872e-02,  7.49686937e-02, -4.88516551e-02, -3.01950280e-02, -3.13331074e-02,  7.65321706e-03, -1.39374047e-02, -2.97288125e-03,  6.23730778e-04,  5.34444851e-02, -4.80419234e-03,  3.17242081e-02,  5.07129063e-03, -7.73793169e-02, -1.57900459e-02,  4.65357192e-02, -3.15986731e-02,  6.18643044e-03, -3.79548917e-01]
w1|25|[  8.41609231e-02,  8.15171763e-03,  3.37471467e-01,  5.90823930e-01,  1.77126989e-01,  9.63530336e-02, -1.33562496e-01, -4.36872981e-02, -1.53302344e-01, -9.88768205e-02, -5.08097550e-02,  1.75931192e-02,  6.34084746e-02, -3.50718772e-02, -1.40647512e-02, -2.78260112e-01,  1.49781936e-01, -7.07865942e-02, -9.03258915e-02, -1.16512117e-01, -4.69790178e-02, -3.78993209e-03, -1.16446973e-01, -1.37479599e-01,  4.78997497e-03, -2.32218503e-01,  1.49822958e-01, -8.05747285e-02, -8.41075535e-03, -1.03940911e-01,  8.16692530e-02,  1.74919568e-01,  3.40649108e-02, -4.57040218e-02, -7.59326528e-02, -1.23570259e-01,  1.53503932e-02, -2.52412595e-01,  4.39675824e-02, -1.21369731e-01, -1.37810006e-01,  1.39364149e-01, -1.20232853e-01, -1.41526756e-01, -1.51630743e-01, -6.76241930e-02, -5.30155858e-02, -5.62682072e-02, -1.62486021e-01, -2.84195673e-01, -9.28221033e-02, -3.02819858e-02, -2.31201417e-02, -3.95413897e-02, -1.11425937e-01, -3.50388107e-02,  2.47085520e-02, -3.28303353e-04,  1.89884934e-02,  6.16381171e-03, -3.60044003e-02, -1.92914955e-02, -5.72019570e-03, -4.95177297e-02, -4.33352028e-03, -2.86603083e-02,  1.18247313e-02, -1.42451136e-03, -3.69395179e-02,  8.62953187e-03,  3.06832125e-03, -3.14430116e-02, -9.75109286e-03,  1.46981641e-02,  1.99763704e-02, -7.99413829e-03, -1.90506894e-02, -2.55368248e-02, -2.27644951e-02, -3.40833258e-04, -1.23225470e-02, -5.78851646e-03, -1.12487545e-02,  1.16710629e-02, -6.81165039e-03,  6.15258913e-04, -2.10574013e-02, -1.26916807e-02, -1.20169300e-02,  4.44248840e-03, -2.13570234e-04,  7.61025639e-03, -4.94138954e-01]
w1|26|[  5.67835183e-02,  4.43806821e-02,  4.15140483e-01,  1.31362264e+00,  2.15536583e-01,  1.17105039e-01, -8.10444544e-02, -7.67971093e-02, -1.66103934e-01, -7.94280639e-02, -4.62810258e-02,  1.59096856e-02,  6.37723524e-02, -1.06253005e-01, -4.76972854e-03, -2.35910285e-01,  9.20191651e-02, -5.30734991e-02, -1.07583670e-01, -1.19839582e-01, -6.59797973e-02, -1.90484820e-03, -6.86764089e-02, -1.41971281e-01, -6.60413778e-02, -2.05928901e-01,  8.00716804e-02, -7.35032226e-02, -3.17753516e-02, -1.12629473e-01,  8.37766679e-02,  1.80396207e-01,  8.02027027e-02, -1.02850549e-01, -7.91385238e-02, -1.13784476e-01,  2.38722942e-02, -2.40186016e-01,  2.60432013e-02, -1.07796927e-01, -9.49061787e-02,  6.65825426e-02, -1.32501164e-01, -1.22366238e-01, -1.02270691e-01, -1.28337524e-01, -6.75382823e-02, -8.68843058e-02, -1.80956158e-01, -3.14987114e-01, -8.13848691e-04, -8.02011459e-02, -3.48318457e-02, -8.33069663e-02, -1.19660716e-01, -2.59055519e-02,  4.78466603e-02,  3.30911263e-02,  1.29023743e-02,  7.18301032e-03, -4.20270627e-03, -1.67729187e-02, -3.07451408e-02, -8.87431185e-02, -6.77169867e-03, -3.39841394e-02,  1.67196221e-02, -1.42500874e-03, -9.86154024e-02,  2.43631601e-02,  3.64059122e-02, -3.84111311e-02,  2.01818253e-02,  3.77435578e-02,  5.49780465e-02,  3.31338476e-02, -2.33248848e-02, -3.08994242e-02, -4.09478786e-02,  1.30117302e-02, -2.99886449e-02,  6.15502977e-03, -7.82970718e-04,  2.01099965e-02, -2.42072046e-03,  1.94547840e-02, -9.14583482e-03, -6.68342768e-02,  2.50164569e-03,  4.74173252e-02, -2.51753665e-02, -1.65156433e-02, -5.23052984e-01]
w1|27|[  8.05669159e-02,  4.51973374e-02,  4.54638074e-01,  1.68113120e+00,  2.03383890e-01,  1.54278245e-01,  3.90733746e-02, -9.99680277e-02, -1.51838333e-01, -8.20014683e-02, -4.10524139e-02, -6.48226061e-04,  2.87275940e-02, -1.25344132e-01, -1.71688217e-02, -1.32899575e-01,  4.50572596e-02, -8.74613214e-02, -9.61055330e-02, -1.21429298e-01, -8.47906846e-02,  1.88839882e-02, -6.76557292e-02, -1.37922085e-01, -9.29770768e-02, -2.04451372e-01,  1.50243462e-01,  3.01669593e-03, -7.91353339e-02, -8.82347661e-02,  4.18065403e-02,  1.64012782e-01,  8.84062782e-02, -1.20287093e-01, -5.62341668e-02, -1.16385228e-01,  3.33118891e-02, -2.02323831e-01, -3.80603575e-03, -5.58076217e-02, -1.00220332e-01,  1.57357079e-02, -1.18872791e-01, -1.34527118e-01, -9.19498109e-02, -5.68640867e-02, -7.28297693e-02, -8.06849157e-02, -1.88806389e-01, -2.68213510e-01,  1.67927687e-02, -3.05015558e-02, -3.62344394e-02, -9.22842354e-02, -1.28727784e-01, -4.78538967e-02,  6.02617901e-02,  1.79494910e-02,  2.02211634e-02,  1.07901671e-03, -1.73609658e-02, -4.23504086e-02, -2.25174732e-02, -9.13248884e-02, -8.11261069e-03, -1.86444513e-02,  2.56034079e-02,  9.86436300e-03, -1.28821398e-01,  1.68557197e-02,  7.87517288e-03, -3.98637209e-02,  1.86965045e-02,  6.36695224e-02,  5.55183238e-02,  4.78208036e-02, -3.74926956e-02, -6.03941409e-02, -3.34788156e-02,  1.84932622e-03, -2.02146859e-02,  1.21351094e-02, -6.06941759e-03,  3.88823353e-02, -2.44456093e-02,  1.26364441e-02, -1.39062516e-02, -7.65310491e-02, -1.71483589e-02,  3.69885706e-02, -2.38697070e-02,  8.59448535e-03, -4.85033234e-01]
w1|28|[  5.74675987e-02,  6.87318671e-02,  3.84229299e-01,  1.16107327e+00,  2.09329420e-01,  6.43049094e-02, -1.75604692e-01,  9.94336833e-03, -1.80824999e-01, -7.31156175e-02, -4.20901449e-02,  2.25998364e-02,  6.36637610e-02, -7.28821236e-02, -1.97199518e-02, -2.43522826e-01,  1.58648148e-01, -9.46366817e-02, -1.26065908e-01, -1.37548505e-01, -8.42793658e-02,  1.11855027e-02, -7.01725148e-02, -1.44902973e-01,  1.43244648e-02, -2.20567436e-01,  5.31220765e-02, -5.46849413e-02, -1.01700605e-03, -9.45517368e-02,  8.98155123e-02,  1.76966950e-01,  1.55485726e-02, -8.46379842e-02, -9.54201711e-02, -9.84446502e-02,  2.08450555e-02, -2.41504344e-01,  3.30007907e-02, -1.10563673e-01, -1.61961022e-01,  1.15436297e-01, -1.27540257e-01, -1.01599083e-01, -1.31232942e-01, -1.35119519e-01, -4.23839477e-02, -8.73190319e-02, -2.28266416e-01, -2.63243711e-01, -1.57397981e-02, -6.44585406e-02, -2.24534870e-02, -7.09572646e-02, -1.00689612e-01, -2.19566746e-02,  5.30468813e-02,  2.25857567e-02, -1.46818599e-03, -3.85808353e-03, -2.03939947e-02, -2.40182003e-02, -4.37670420e-02, -6.10861315e-02, -6.54843443e-04, -2.38187348e-02,  1.89732562e-02, -1.08545968e-02, -7.90317827e-02,  2.18788279e-02, -8.80090678e-03, -3.69667942e-02,  1.11430847e-02,  4.23983496e-02,  4.61151656e-02,  3.61035713e-03, -3.33419350e-02, -1.98923360e-02, -4.75137639e-02, -3.66649872e-03, -7.49838164e-03,  1.27275072e-02, -9.03023641e-03,  1.63940247e-02, -1.08971326e-02,  1.39217391e-02, -2.53300922e-02, -4.49787557e-02, -2.55061578e-02,  3.22737063e-02, -1.53012797e-02,  8.03340882e-03, -4.99788073e-01]
w1|29|[  2.45082289e-01, -6.55227845e-02,  2.90784712e-01, -6.61298883e-02,  1.08026598e-01,  1.95397924e-01, -1.66234705e-01, -5.67478457e-02, -7.43314452e-02, -1.23754309e-01, -9.13224401e-02,  5.46481609e-02, -2.13216410e-02,  4.35786583e-02,  1.40513912e-02, -2.89094086e-01,  2.07399162e-01, -8.30406637e-02, -7.67777820e-02, -1.38583585e-01, -6.28889750e-02,  1.02629877e-02, -1.82118622e-01, -1.38150999e-01,  2.64843787e-02, -1.95481903e-01,  2.66096229e-01, -3.37957043e-02, -1.06012941e-01, -1.25189040e-01,  1.74443302e-02,  2.38809420e-01,  8.35937949e-02,  8.36404483e-04, -4.71655295e-02, -1.74982245e-01, -2.14107893e-02, -2.57128291e-01,  6.78500449e-02, -5.72562018e-02, -1.52656988e-01,  1.40791287e-01, -1.44559774e-01, -1.81170731e-01, -1.05259262e-01, -3.55848859e-02, -4.86822754e-02, -3.47759916e-02, -1.32342736e-01, -2.75389002e-01, -1.41801280e-01,  9.17856776e-03,  1.24946320e-02, -6.93390193e-03, -1.07191537e-01, -1.00919341e-02,  1.27926653e-02, -2.41820830e-03, -2.64427843e-02, -9.03664822e-03, -1.20487743e-02, -2.35210386e-02, -4.59805513e-03,  3.23802565e-04, -8.01489715e-03,  9.36722043e-03, -4.94303449e-03, -1.16577094e-02,  2.41109832e-02,  4.15820595e-04, -2.09851753e-02,  6.69150231e-03, -2.40208245e-02,  4.80221962e-03, -1.82445252e-02,  1.30147554e-02, -6.56374770e-03, -1.50636907e-02,  3.59483918e-03, -1.24665599e-05,  1.49985095e-02, -8.14553590e-03, -2.84429513e-02,  5.35358966e-05, -9.37845646e-03, -9.74857049e-04, -4.87087095e-03,  6.23749122e-03,  2.39151382e-04, -1.57818275e-02,  9.78974487e-04,  2.03323343e-03, -4.24460486e-01]
w1|30|[  6.97435823e-02,  3.31223001e-02,  3.59847238e-01,  8.31721332e-01,  1.83776774e-01,  9.88555064e-02, -1.42572709e-01, -5.17542658e-02, -1.26545461e-01, -8.58623320e-02, -6.92956895e-02,  2.48296424e-02,  7.62626796e-02, -5.52685924e-02, -9.26884575e-03, -2.65173229e-01,  1.47720742e-01, -6.93372444e-02, -9.44304577e-02, -1.40156419e-01, -8.08920010e-02, -7.34109440e-04, -9.75421566e-02, -1.29660986e-01, -1.06618103e-03, -2.15948860e-01,  1.31496119e-01, -7.40549153e-02, -4.24619943e-03, -1.07319542e-01,  7.45406382e-02,  1.88027489e-01,  1.79918035e-02, -7.78437456e-02, -7.88365767e-02, -1.25038061e-01,  4.80842021e-03, -2.53865969e-01,  1.89108415e-02, -1.03885129e-01, -1.29411719e-01,  1.09966122e-01, -1.33136314e-01, -1.26535412e-01, -1.47204746e-01, -9.98012122e-02, -3.70693837e-02, -8.26249096e-02, -1.86080416e-01, -2.86773758e-01, -3.79685335e-02, -6.72939745e-02, -1.89104928e-02, -4.41036975e-02, -9.49008700e-02, -2.52311699e-02,  3.02415200e-02, -7.08242300e-03,  1.51948803e-02,  8.69414580e-03, -2.68100995e-02, -1.29462312e-02, -2.87407819e-02, -4.64375997e-02, -4.48696593e-03, -2.00906874e-02,  5.40818357e-03, -2.71404796e-03, -6.53527843e-02,  1.86502194e-02,  9.67541877e-03, -1.81535071e-02, -1.14204875e-02,  3.10869874e-02,  1.83362823e-02,  2.78871496e-02, -1.04535031e-02, -2.73354300e-02, -1.94861373e-02,  2.72967001e-03, -1.45933703e-02,  1.32458409e-02, -1.39612812e-02,  1.36552830e-02, -6.84556627e-03, -3.03145838e-03, -2.68681145e-02, -2.83310197e-02, -2.09778263e-02,  7.24676188e-03, -1.25351141e-02,  2.08062212e-02, -4.98984971e-01]
w1|31|[ 0.16040216,-0.02406332, 0.2998934 , 0.26420869, 0.14033417, 0.14011772,-0.13290758,-0.0629149 ,-0.10159204,-0.10907972,-0.08408371, 0.03483137, 0.02899426,-0.00213077, 0.00859199,-0.28370055, 0.1718492 ,-0.05842108,-0.09988313,-0.11749485,-0.0329565 , 0.03519949,-0.13468343,-0.12404682, 0.03575897,-0.20843397, 0.2013411 ,-0.06037365,-0.05321316,-0.10506308, 0.03716116, 0.21818306, 0.03597543,-0.02357905,-0.05602232,-0.16681225,-0.00429214,-0.24892786, 0.04001925,-0.08874193,-0.15676012, 0.14490107,-0.12092455,-0.14207706,-0.145118  ,-0.04751048,-0.0310941 ,-0.05946223,-0.14064686,-0.28151234,-0.10777929,-0.023507  ,-0.00534691,-0.01442606,-0.08592152,-0.02016071, 0.01553319,-0.00780299,-0.00961662,-0.00281079,-0.03134716,-0.01822711,-0.00956377,-0.03064941,-0.00054322,-0.00085977, 0.00673941, 0.00332988,-0.0318505 , 0.00081525, 0.00821582,-0.01040443, 0.00618561, 0.01449504, 0.00264945, 0.00563496,-0.0182356 ,-0.01129211,-0.02557337,-0.00864398,-0.02848665,-0.00600347,-0.02023302,-0.00544578, 0.00150615, 0.00956264, 0.00366705, 0.00089505,-0.01883963, 0.00676358, 0.00689991, 0.00841561,-0.44451847]
w1|32|[ 0.09122475, 0.04714921, 0.43064867, 1.63801471, 0.18253406, 0.17667755, 0.03167118,-0.10167213,-0.09786407,-0.06488605,-0.05668972,-0.02180753, 0.01812673,-0.13120806,-0.01038473,-0.13402747, 0.04043508,-0.08777708,-0.10267077,-0.09842988,-0.07499817, 0.02652044,-0.10277392,-0.1159839 ,-0.07239382,-0.17662649, 0.1649606 , 0.00896634,-0.08522803,-0.08249103, 0.0349573 , 0.17860174, 0.05877527,-0.12313724,-0.03096757,-0.12310669, 0.02623267,-0.20596596,-0.04432608,-0.03516427,-0.0815706 , 0.05257675,-0.14378223,-0.1400928 ,-0.06701276,-0.06984455,-0.0875931 ,-0.09290805,-0.15388558,-0.26133678,-0.00720963,-0.01858842,-0.04881884,-0.10002909,-0.07953277,-0.04056718, 0.05990175, 0.01080426, 0.03202198, 0.00904069,-0.00828798,-0.00783067,-0.03656458,-0.08081397, 0.00290711, 0.01513232, 0.02201689,-0.01042107,-0.13534289, 0.03048381,-0.00510479,-0.03755597, 0.00480668, 0.06634237, 0.0369246 , 0.06275518,-0.03348901,-0.04069461,-0.02894901, 0.00669204,-0.03222897,-0.01322034,-0.02829916, 0.04617966,-0.02137099, 0.01805503,-0.01785818,-0.0426163 ,-0.01293517, 0.02980225,-0.01312893,-0.00172504,-0.43274443]
w1|33|[  6.21129851e-02,  4.91432604e-02,  3.85494471e-01,  1.10885762e+00,  2.01324867e-01,  1.07830485e-01, -8.96326961e-02, -4.50653956e-02, -1.25551433e-01, -1.06481330e-01, -6.59505819e-02,  1.70429558e-02,  7.08472115e-02, -7.89897024e-02, -1.39744230e-03, -2.64800212e-01,  9.63084939e-02, -6.36531215e-02, -8.47611597e-02, -1.08520403e-01, -6.34289550e-02,  6.69054824e-03, -9.12266886e-02, -1.58290791e-01, -2.68967468e-02, -2.12646306e-01,  1.15866483e-01, -5.37396795e-02, -3.75530501e-02, -1.03911510e-01,  8.64275091e-02,  1.77367753e-01,  6.17318143e-02, -8.10454512e-02, -5.92519567e-02, -1.11528139e-01,  3.06467880e-02, -2.49671516e-01,  3.25755336e-02, -1.13179215e-01, -9.36745154e-02,  8.52631389e-02, -1.32471064e-01, -9.31130508e-02, -1.17328915e-01, -1.02032922e-01, -6.22936845e-02, -1.06041878e-01, -1.68827115e-01, -3.29277979e-01, -3.02071510e-02, -6.04978986e-02, -3.16597717e-02, -7.66531926e-02, -1.17350485e-01, -3.15815104e-02,  4.02397489e-02,  1.10306847e-02,  3.43042252e-02,  1.43879301e-02, -1.37467450e-02, -1.55853034e-02, -3.61018717e-02, -4.94443965e-02, -2.44173432e-02, -2.38316807e-02,  2.76357451e-02,  1.12314363e-02, -7.84869559e-02,  3.69348136e-02,  7.37818826e-03, -1.89130228e-02,  1.81187146e-02,  2.88595526e-02,  4.55839758e-02,  3.74328543e-02, -5.57183941e-03, -4.00329714e-02, -2.86678936e-02,  2.19824019e-02, -7.38756688e-03,  2.41078721e-03,  2.35079912e-03,  8.80790574e-03, -9.36401377e-03,  2.55001365e-02, -2.26958560e-02, -3.91829088e-02, -2.31049152e-02,  3.15132072e-02,  3.67159934e-03,  4.50006821e-04, -5.01616728e-01]
w1|34|[  1.57351256e-01, -3.57023462e-02,  3.07943939e-01,  2.19110212e-01,  1.31176666e-01,  1.40542280e-01, -1.32393468e-01, -5.87571842e-02, -8.22751005e-02, -1.08704703e-01, -9.26761586e-02,  5.18785325e-02,  1.35274632e-02, -7.26436861e-03,  6.98389176e-03, -2.79973271e-01,  1.80083473e-01, -6.38301687e-02, -8.78478916e-02, -1.20572715e-01, -5.28588252e-02, -4.65569455e-03, -1.58879537e-01, -1.31313258e-01,  2.93816723e-02, -2.10725306e-01,  2.22627587e-01, -7.58747672e-02, -5.91809282e-02, -1.12553924e-01,  5.35635831e-02,  2.35997010e-01,  5.15108672e-02, -1.94450123e-02, -6.71031376e-02, -1.53110376e-01,  2.39237288e-04, -2.48575627e-01,  4.39932320e-02, -6.13570710e-02, -1.66891550e-01,  1.23990446e-01, -1.15143982e-01, -1.67160859e-01, -1.28152181e-01, -2.03393317e-02, -3.61947753e-02, -4.20484031e-02, -1.44477319e-01, -2.76193185e-01, -1.13863616e-01, -3.12636929e-02, -1.12242372e-02, -2.19042702e-02, -8.90060013e-02, -1.04443975e-02, -1.46477633e-02, -8.79796014e-03, -1.37618458e-02, -8.55714376e-03, -1.93357110e-02, -2.98185533e-03, -2.88233818e-02, -2.68678148e-02, -2.48536679e-02, -1.73589222e-02, -7.71819862e-03, -9.00689740e-03,  9.14261052e-03,  6.88857058e-03, -1.56712731e-02,  3.07434587e-03, -2.06291788e-02,  6.36531520e-03, -2.92208265e-03,  1.95079784e-02, -1.41056894e-02, -5.50033473e-03, -1.72078875e-02, -1.29076650e-02, -1.62924061e-02,  7.06261946e-03, -2.27864356e-02, -3.25937624e-03, -2.30449607e-02, -4.42267922e-03, -3.12236093e-03, -4.76583815e-03, -4.96665757e-03, -9.68834651e-03, -1.60452108e-02, -1.57157089e-02, -4.47124308e-01]
w1|35|[  5.16933822e-02,  4.10159603e-02,  4.09521273e-01,  1.28814461e+00,  2.28764514e-01,  8.59324183e-02, -9.29974929e-02, -6.78533669e-02, -1.65558963e-01, -9.10168144e-02, -4.15151195e-02, -9.96035270e-03,  5.16483271e-02, -1.02049488e-01, -9.40537253e-04, -2.12507501e-01,  9.96898523e-02, -7.93142879e-02, -1.00416674e-01, -1.38709857e-01, -8.34674024e-02,  8.59306095e-03, -7.88585957e-02, -1.41009466e-01, -3.95149374e-02, -1.99114811e-01,  1.03503097e-01, -4.39273499e-02, -2.59421088e-02, -9.94420942e-02,  8.12390383e-02,  1.84104765e-01,  5.36939562e-02, -8.41009756e-02, -6.26885124e-02, -1.08970015e-01,  3.02350777e-02, -2.31511276e-01,  1.88770849e-02, -8.80232745e-02, -9.49217276e-02,  7.82366287e-02, -1.31435730e-01, -1.22115136e-01, -1.12057781e-01, -1.18717430e-01, -4.40353698e-02, -9.01898389e-02, -2.10074411e-01, -2.88268710e-01, -1.16475402e-02, -7.34964068e-02, -3.45829266e-02, -8.58878093e-02, -1.15503276e-01, -3.21144538e-02,  3.99048002e-02,  1.38929210e-02,  4.66997432e-02,  9.87871436e-03, -1.63006308e-02, -1.35388968e-02, -4.03425634e-02, -6.25982975e-02, -1.14970555e-02, -8.64701941e-03,  1.35394370e-02,  1.74603839e-03, -9.93325492e-02,  1.65665923e-02, -1.21110730e-03, -4.31608902e-02,  3.29080208e-02,  4.50256494e-02,  2.36335691e-02,  3.00342877e-02, -1.77052039e-02, -3.10054651e-02, -2.77779093e-02,  2.95197209e-02, -1.31045741e-02,  1.08355859e-02, -1.87282345e-02,  1.82771267e-02,  5.22618301e-03,  9.85792807e-03, -3.30086223e-03, -4.47338234e-02, -1.86464729e-02,  2.98214920e-02, -9.88669996e-03, -1.66004978e-03, -5.04958715e-01]
w1|36|[ 0.09430189, 0.05326904, 0.45024441, 1.80155999, 0.1945925 , 0.17093413, 0.04415821,-0.0847239 ,-0.18358081,-0.04907023,-0.02022512,-0.0242875 , 0.02495864,-0.13729993,-0.01955026,-0.10451673, 0.07501178,-0.12950705,-0.11190337,-0.11686962,-0.09907109, 0.01421625,-0.06441321,-0.13231131,-0.10374088,-0.18497773, 0.12772392, 0.02612864,-0.08040397,-0.0752467 , 0.05075512, 0.18385663, 0.03557322,-0.13195897,-0.07749659,-0.108836  , 0.02897667,-0.18128718,-0.01443735,-0.03560718,-0.12459288, 0.02110274,-0.14545937,-0.11956624,-0.08609484,-0.06571344,-0.09138593,-0.08901551,-0.23475688,-0.23033378, 0.01603983,-0.00782867,-0.03673519,-0.0954571 ,-0.11671085,-0.05606648, 0.0819327 , 0.02375918, 0.01990156, 0.0084099 ,-0.02162203,-0.02663188,-0.03621015,-0.0943878 ,-0.00341717,-0.00692384, 0.03643802, 0.00575833,-0.14917323, 0.05119572, 0.00800043,-0.0371157 , 0.0204469 , 0.0494767 , 0.04643371, 0.0414608 ,-0.04540906,-0.02762912,-0.03219324, 0.01318358,-0.0264823 , 0.01461408,-0.01417809, 0.05045021,-0.01069311, 0.03268358,-0.01100981,-0.08575978,-0.02327057, 0.04896267,-0.02693701,-0.00565401,-0.47584669]
w1|37|[  2.17754308e-01, -5.74124355e-02,  2.93342569e-01, -3.10272523e-02,  1.24164385e-01,  1.88001753e-01, -1.38227426e-01, -6.94428170e-02, -9.13335093e-02, -1.44920965e-01, -9.32102270e-02,  3.17784345e-02, -7.65174488e-03,  2.71838330e-02,  3.96565291e-03, -2.80788267e-01,  2.12485102e-01, -7.42097527e-02, -8.52696484e-02, -1.01479184e-01, -6.47832917e-02, -4.25441912e-03, -1.48087516e-01, -1.30555493e-01,  5.32450734e-02, -1.88235097e-01,  2.38183681e-01, -4.88326388e-02, -7.67632244e-02, -1.13258891e-01,  2.02834123e-02,  2.27539659e-01,  5.63352881e-02, -1.13481362e-02, -6.07171584e-02, -1.60125721e-01, -2.37924636e-02, -2.71247367e-01,  6.79044755e-02, -4.65472959e-02, -1.57730978e-01,  1.60924162e-01, -1.33939963e-01, -1.97878596e-01, -1.23098102e-01, -2.88516244e-02, -4.74136761e-02, -3.70613070e-02, -1.29267485e-01, -2.69304017e-01, -1.31135671e-01,  8.20894755e-03,  2.90500900e-03, -3.27037021e-04, -8.20086379e-02, -9.75620515e-03, -2.48294284e-03, -1.01047724e-02, -2.02291903e-02, -1.63867810e-02, -1.64912146e-02, -8.12617113e-03, -9.04364356e-03, -1.31231942e-02,  1.13642644e-02,  9.34300830e-03, -2.82365505e-02, -8.92554776e-03,  3.81891146e-02,  2.97268623e-03, -3.09277241e-02,  8.21219614e-03,  2.64942990e-03, -2.51226454e-04,  2.20032726e-03, -4.88472002e-04,  9.46097883e-03, -7.51355550e-03, -4.64056140e-03, -8.95254641e-04, -4.17160574e-03,  2.13352851e-03, -1.93787774e-02, -3.88001387e-03, -4.29962275e-04,  6.89017708e-03,  9.15024118e-03,  2.74639446e-02,  5.49649180e-04, -2.25693107e-02,  2.85686783e-02, -5.31758401e-03, -4.12804427e-01]
w1|38|[  1.15270115e-01, -1.60367029e-02,  3.11483824e-01,  4.14111123e-01,  1.34939964e-01,  1.37839254e-01, -1.26466899e-01, -3.72563681e-02, -1.19581810e-01, -1.04542630e-01, -6.53529041e-02,  4.70894586e-02,  1.94080825e-02, -2.54877949e-02, -1.40666772e-02, -2.96963999e-01,  1.82171061e-01, -7.48630369e-02, -9.30393460e-02, -1.26741997e-01, -5.39446194e-02,  3.19390775e-02, -1.18763698e-01, -1.34220388e-01,  1.70409046e-02, -2.21829252e-01,  2.02179276e-01, -7.44874420e-02, -3.47506915e-02, -1.33339868e-01,  6.94455236e-02,  1.99743250e-01,  3.60707214e-02, -3.26114572e-02, -6.41476602e-02, -1.41929893e-01,  4.86266897e-03, -2.63773986e-01,  3.85102655e-02, -9.06691510e-02, -1.40663436e-01,  1.35088112e-01, -1.21200425e-01, -1.43102396e-01, -1.53287258e-01, -4.12511221e-02, -5.12440941e-02, -6.48588353e-02, -1.69546462e-01, -2.74727705e-01, -9.53842039e-02, -4.93122785e-02, -1.84462225e-02, -1.45822726e-02, -9.89056548e-02, -2.38788534e-02,  2.20947765e-02,  1.50530080e-02,  1.06108099e-03,  1.13552979e-03, -1.03550604e-02, -1.99239491e-02, -1.71720140e-02, -3.28322782e-02, -2.55042767e-03, -2.73974845e-03,  4.10023890e-03, -7.25800189e-03, -2.25872287e-02, -9.59621211e-03, -5.63497292e-03, -2.96167462e-02,  1.28815916e-02, -1.61156741e-04,  2.79315962e-02,  2.19070881e-02, -6.34761026e-03, -1.45694848e-02, -1.65705921e-02,  2.03603600e-03,  6.21576336e-03,  1.91490003e-02, -8.70439314e-03, -4.50440874e-03, -6.58228784e-03, -1.08707648e-03,  1.40886896e-03, -6.40547237e-03, -1.45861895e-02,  1.41840577e-02, -1.96637678e-02,  6.68795333e-04, -4.71872307e-01]
w1|39|[  1.88617289e-01, -4.34838473e-02,  2.85424712e-01,  9.10786259e-02,  1.27306535e-01,  1.73332535e-01, -1.32091831e-01, -6.41352623e-02, -8.00405724e-02, -1.09176311e-01, -9.72880574e-02,  3.98884223e-02, -1.84895467e-02,  2.21126155e-02,  1.87857077e-02, -2.79682836e-01,  2.15460763e-01, -8.61617850e-02, -8.93311306e-02, -1.08669677e-01, -6.88562457e-02, -1.09205686e-03, -1.59320595e-01, -1.27992743e-01,  4.07083673e-02, -2.04079431e-01,  2.39882919e-01, -2.55581031e-02, -8.05450014e-02, -1.23303935e-01,  3.48918202e-02,  2.11155351e-01,  7.84740612e-02, -1.04479586e-02, -6.14302441e-02, -1.67656369e-01, -4.26687270e-03, -2.65874779e-01,  6.36666812e-02, -6.83987997e-02, -1.44839974e-01,  1.59968555e-01, -1.23251907e-01, -1.62826635e-01, -1.21243881e-01, -4.13590382e-02, -5.47790881e-02, -4.78233612e-02, -1.45063627e-01, -2.72011950e-01, -1.29837803e-01,  3.11002521e-03, -5.89770027e-03, -1.00432324e-02, -1.03902569e-01, -1.56815654e-02,  6.22676445e-03, -1.96456649e-03, -1.77128298e-02,  7.87777291e-04, -2.03662717e-02, -2.25669462e-02, -6.22770445e-03, -1.44826141e-02, -1.42039781e-02,  3.49385708e-03, -1.38442209e-02, -1.30151529e-02,  5.24718219e-03,  2.03715020e-02, -1.68193991e-02,  1.34026129e-02,  2.32233876e-03,  2.54102691e-02, -1.83313703e-02, -8.16179707e-03,  9.11787498e-03, -1.70985423e-02, -7.57085233e-03,  1.21886001e-03, -1.13588481e-02, -2.13850724e-02, -1.48962110e-02,  6.27644161e-03, -1.52900229e-02, -1.19767365e-03, -3.52353511e-03,  1.45796220e-04,  3.36041955e-03,  1.10198923e-03,  5.26384796e-03, -5.32963870e-03, -4.43873153e-01]
w1|40|[  2.84395352e-01, -9.76171932e-02,  2.62195932e-01, -3.61391672e-01,  9.92397678e-02,  2.08494641e-01, -1.40930800e-01, -5.79627742e-02, -6.42625957e-02, -1.24623934e-01, -1.02320033e-01,  4.96712305e-02, -3.87732059e-02,  5.09584724e-02,  7.21907682e-03, -2.80106222e-01,  2.50794670e-01, -9.33599568e-02, -7.37707920e-02, -1.24322370e-01, -6.28901978e-02, -5.25891804e-03, -1.90862560e-01, -1.25819820e-01,  4.07062509e-02, -1.82607688e-01,  2.78251461e-01, -1.10029913e-02, -1.32003894e-01, -1.29872627e-01, -4.38591041e-02,  2.45825058e-01,  9.73888230e-02,  7.48471552e-03, -5.69272662e-02, -1.99984518e-01, -2.11671977e-02, -2.51121001e-01,  7.79096590e-02, -5.03621675e-02, -1.91073319e-01,  1.75226908e-01, -1.53683649e-01, -1.80226040e-01, -7.64899120e-02, -1.56680641e-02, -5.73026126e-02, -2.93604930e-02, -1.26917081e-01, -2.66615738e-01, -1.73829695e-01,  7.91659546e-03, -4.02418229e-03,  2.70973626e-02, -7.55952310e-02,  8.38293785e-03, -2.22797073e-02, -2.29274794e-02, -5.07774155e-02, -2.32679525e-02, -3.32209101e-02, -9.72875560e-03, -8.42324061e-03,  1.72352075e-02, -4.42331008e-03,  1.80321785e-02, -1.56863975e-02,  2.73082676e-03,  4.84701337e-02, -9.38779322e-03, -2.22966491e-02,  2.14283578e-02, -5.52755301e-03,  3.01316298e-03, -2.80445551e-02,  5.36163752e-03, -3.19771507e-04,  1.01035393e-02, -8.11023166e-03, -8.46733286e-03, -1.18934289e-02, -3.95236569e-02, -3.19302904e-02, -2.54145626e-02,  9.49451266e-04, -1.02595631e-02,  4.69585649e-03,  3.30497916e-02,  1.28274249e-02, -1.61182768e-02,  4.39227225e-04, -7.33157204e-03, -4.02665225e-01]
w1|41|[  1.37376754e-01, -2.25287708e-02,  3.06716154e-01,  4.24577561e-01,  1.60550481e-01,  1.08273202e-01, -1.44248452e-01, -5.59490956e-02, -1.11485431e-01, -1.02770142e-01, -8.38498594e-02,  4.09499227e-02,  3.48742456e-02, -4.03775336e-04,  6.55863474e-03, -2.62547946e-01,  1.57860669e-01, -5.86215770e-02, -1.06206219e-01, -1.40172576e-01, -5.51059662e-02, -5.37168743e-03, -1.37264988e-01, -1.40167715e-01,  3.11276841e-02, -2.24931122e-01,  1.88212333e-01, -7.58937009e-02, -3.93453423e-02, -1.20222769e-01,  6.87811604e-02,  1.99282138e-01,  4.09147295e-02, -4.02592298e-02, -7.73714564e-02, -1.45018937e-01, -3.62877533e-03, -2.58015648e-01,  3.38643354e-02, -8.92527670e-02, -1.53357486e-01,  1.26827457e-01, -1.31652807e-01, -1.42135620e-01, -1.30465946e-01, -4.54027223e-02, -5.19521864e-02, -5.20498940e-02, -1.68490903e-01, -2.80878508e-01, -9.05224855e-02, -3.23583143e-02, -2.45987082e-02, -6.34793956e-03, -1.08828960e-01, -3.13617551e-02,  2.38887673e-03,  5.71100613e-03, -2.07109585e-03, -8.15425907e-03,  2.63856670e-03, -2.15551901e-02, -2.22042817e-02, -1.97800688e-02,  1.45648669e-03,  1.99473851e-02,  4.70110173e-03, -4.86057702e-03, -1.53907703e-02,  2.52700988e-02, -3.33723155e-02, -1.01521673e-02, -1.78216109e-03,  6.51328918e-03,  2.24122843e-02,  1.74744112e-02, -1.69420335e-02, -1.76850014e-02, -8.24433418e-03, -2.36479740e-04, -1.10250449e-02, -1.45301871e-02,  1.18810574e-03,  1.50219564e-02,  1.52293214e-02,  1.10249824e-02,  1.06124379e-02, -1.04396627e-02, -1.18322791e-02,  1.30555927e-02, -3.74407324e-03,  5.63737189e-03, -4.49892618e-01]
w1|42|[  2.47857879e-01, -7.29358058e-02,  2.74356728e-01, -5.04341575e-01,  9.82541134e-02,  1.76734534e-01, -1.33860761e-01, -5.33459022e-02, -8.29772228e-02, -1.44692757e-01, -5.88691632e-02,  5.79546014e-02, -3.35283520e-02,  8.17378818e-02,  1.37255522e-02, -2.50078588e-01,  2.49173345e-01, -8.73744325e-02, -7.19519415e-02, -1.35180175e-01, -6.53610974e-02, -4.78717608e-03, -2.04494906e-01, -1.47163443e-01,  6.40877957e-02, -1.68321781e-01,  2.98275962e-01, -2.35983587e-02, -1.43045352e-01, -1.20153232e-01, -2.89070551e-02,  2.60060521e-01,  9.96692001e-02,  5.25508453e-02, -6.03945264e-02, -1.89486029e-01, -2.21991292e-02, -2.51168477e-01,  7.53143613e-02, -6.46287210e-03, -2.19331987e-01,  1.76954104e-01, -1.45034913e-01, -2.03287580e-01, -3.66693141e-02, -3.28359158e-02, -5.27467055e-02, -1.45151268e-02, -7.01162548e-02, -2.87062508e-01, -1.39656358e-01,  1.02845744e-02,  2.44435860e-02,  2.22561382e-02, -9.50209032e-02, -1.21088372e-02, -3.44054965e-02, -1.27127523e-02, -4.21329600e-02, -1.30534658e-02, -1.33833108e-02, -1.80675858e-02,  4.29796578e-03,  1.82250606e-02,  3.06228098e-03,  9.34797079e-03, -3.96391833e-02, -1.69701708e-02,  8.28420048e-02,  1.36550080e-02, -1.62722605e-02,  3.26246553e-02, -1.90560544e-04, -1.67139627e-02, -2.54924351e-02, -6.38065079e-03,  5.35665107e-03,  1.55232388e-02, -5.14515029e-03, -1.74372685e-02,  9.71183715e-04, -2.80341289e-02, -2.80861260e-03, -2.78387664e-02,  2.04710910e-02, -6.57116470e-03, -1.64892082e-03,  1.37139930e-02,  2.30160535e-02, -4.04362590e-03,  2.27131540e-02, -4.53062622e-03, -3.52693328e-01]
w1|43|[  6.25354082e-02,  4.55064286e-02,  4.38246476e-01,  1.57453808e+00,  2.11377763e-01,  1.28505053e-01, -6.80983709e-02, -4.31399648e-02, -2.08942783e-01, -7.88904414e-02, -1.88444047e-02, -1.34222136e-02,  3.55477349e-02, -1.14140808e-01, -3.07407402e-02, -1.97441066e-01,  8.49231900e-02, -6.73572744e-02, -1.08903673e-01, -9.49168906e-02, -9.25643757e-02,  1.87500627e-02, -7.31880423e-02, -1.60657429e-01, -5.45863476e-02, -1.85439362e-01,  4.00716826e-02, -1.98897520e-02, -6.10874270e-02, -1.04298270e-01,  8.51480198e-02,  1.92099715e-01,  7.28400722e-02, -1.22744828e-01, -5.36804647e-02, -1.08671963e-01,  4.13999273e-02, -2.35902373e-01,  7.10547406e-03, -8.59303647e-02, -9.36799344e-02,  4.09948668e-02, -1.54806140e-01, -9.92807025e-02, -1.11832689e-01, -1.35463589e-01, -5.74424168e-02, -8.67089518e-02, -2.02588689e-01, -2.95943804e-01,  1.67356220e-02, -6.56911112e-02, -3.52049660e-02, -9.36151818e-02, -1.00989863e-01, -3.85608102e-02,  5.50872599e-02,  3.38007505e-02,  3.18751306e-02,  7.01390992e-03, -1.89949948e-02, -1.06309326e-02, -5.41865602e-02, -8.92075461e-02,  8.22876814e-03, -2.31171356e-02,  7.61380493e-03,  1.33279309e-02, -1.29331263e-01,  5.14630533e-02,  9.07344752e-03, -4.16050473e-02,  8.01335727e-03,  4.13436018e-02,  5.64582774e-02,  5.69932999e-02, -2.69624394e-02, -4.41507506e-02, -4.03225550e-02,  7.62781963e-03, -2.55050012e-02,  6.07167513e-03, -9.33184349e-03,  4.07948029e-02,  1.85907999e-02,  1.92237893e-02, -3.45102446e-02, -5.77323751e-02, -3.69583888e-02,  4.64070151e-02, -1.69499787e-02,  7.93396340e-05, -4.87137689e-01]
w1|44|[  5.39661393e-02,  6.92968947e-02,  4.55066732e-01,  1.69659828e+00,  2.13495834e-01,  1.40534301e-01, -5.39380865e-02, -8.88759595e-02, -9.97703557e-02, -5.84301515e-02, -4.98093758e-02, -1.25504722e-03,  2.98177528e-02, -1.52672119e-01, -2.63873283e-02, -9.84418667e-02,  1.11927631e-01, -1.27528604e-01, -1.08342878e-01, -1.67714934e-01, -6.40915248e-02,  1.04073461e-02, -6.86612553e-02, -1.31293810e-01, -6.13552108e-02, -1.64243608e-01,  1.37771277e-01, -7.59910390e-02, -3.97585845e-02, -5.33674727e-02,  4.97363602e-02,  1.93609224e-01,  5.40619038e-02, -1.29036042e-01, -8.65907350e-02, -1.07181054e-01,  4.06133982e-02, -2.17814056e-01, -2.12358192e-02, -2.34851481e-02, -1.08529041e-01,  7.99047506e-02, -1.07639217e-01, -1.56323146e-01, -6.92113206e-02, -6.49395920e-02, -8.66433477e-02, -1.05032014e-01, -2.43427469e-01, -2.12195782e-01,  1.00131004e-02, -4.41875427e-02, -3.95866781e-02, -1.19462369e-01, -1.21350404e-01, -3.82688828e-02,  8.52688756e-02,  1.44618387e-02,  1.72227313e-02,  3.37099437e-03, -2.31213055e-02, -1.45047946e-02, -4.07749842e-02, -9.32703658e-02, -8.72010826e-03, -8.01342960e-03,  1.95958541e-02,  1.20418813e-02, -1.42701387e-01,  3.44486546e-02,  1.39787589e-02, -4.19510538e-02,  2.77385675e-02,  4.90114606e-02,  5.54468586e-02,  4.44815157e-02, -2.41301902e-02, -4.18070463e-02, -3.91580159e-02,  5.90897530e-03, -1.63536858e-02,  6.41389710e-03, -1.25254937e-03,  4.08685062e-02,  9.39384091e-04,  5.64215935e-02, -2.08766021e-03, -7.47205556e-02, -1.74630312e-02,  3.28790641e-02, -2.00984121e-02,  1.00055866e-02, -5.08386610e-01]
w1|45|[ 0.05331638, 0.06610172, 0.44478916, 1.50867868, 0.21601964, 0.12558983,-0.05589042,-0.05450556,-0.19226012,-0.07142451,-0.0250166 ,-0.00772862, 0.067739  ,-0.12251414,-0.01793291,-0.21570079, 0.10255984,-0.10246133,-0.10093986,-0.13324501,-0.10013713, 0.0134287 ,-0.05350749,-0.14288635,-0.05237284,-0.19768009, 0.08311309,-0.03971036,-0.04396962,-0.10992921, 0.079369  , 0.18240249, 0.05079677,-0.11406646,-0.07932797,-0.0928919 , 0.03087451,-0.21282114, 0.02093309,-0.08219301,-0.10010204, 0.03326801,-0.155869  ,-0.10480193,-0.11507202,-0.10982337,-0.05941456,-0.09814541,-0.21387269,-0.2811762 , 0.01849112,-0.07557415,-0.0523532 ,-0.08202119,-0.10290831,-0.05268991, 0.0556744 , 0.0299392 , 0.03752194, 0.02157623,-0.01708199,-0.02485724,-0.05290311,-0.06943509, 0.00640876,-0.06444691, 0.01918034, 0.00234511,-0.1306012 , 0.03737954, 0.02428903,-0.02307702, 0.01329899, 0.05973576, 0.03925701, 0.03919175,-0.03665063,-0.03975729,-0.04611029, 0.0130437 ,-0.01538961, 0.00877095,-0.01956189, 0.03192352,-0.01426811, 0.02416631,-0.03503077,-0.08819986,-0.02648498, 0.04873357,-0.01388257, 0.00739428,-0.51112289]
w1|46|[  2.62264485e-01, -9.46955222e-02,  2.69243528e-01, -4.71624973e-01,  7.96981888e-02,  1.92338757e-01, -1.35457171e-01, -5.14469782e-02, -7.69884454e-02, -1.35735764e-01, -6.92474564e-02,  5.84205085e-02, -3.09477629e-02,  7.59288048e-02,  5.79113601e-03, -2.67584506e-01,  2.40758028e-01, -1.04285221e-01, -6.20103921e-02, -1.16819576e-01, -4.23865138e-02, -2.57757642e-02, -2.07486729e-01, -1.24523390e-01,  4.61293202e-02, -1.79840198e-01,  3.06200412e-01, -2.80843359e-02, -1.27399626e-01, -1.12406969e-01, -2.56974814e-02,  2.49652799e-01,  1.06847843e-01,  2.48510362e-02, -6.57060859e-02, -1.83036837e-01, -1.89295886e-02, -2.59655255e-01,  9.28068632e-02, -2.05037422e-02, -2.01546121e-01,  1.75864005e-01, -1.57224852e-01, -2.16265640e-01, -5.14715723e-02, -2.95061426e-02, -5.54608483e-02, -1.70368034e-02, -9.33514593e-02, -2.70191144e-01, -1.50016908e-01,  1.93035295e-02,  1.68141348e-02,  4.47606205e-02, -1.05066020e-01, -1.41550798e-02, -3.10401847e-02, -7.65242100e-03, -4.69246832e-02, -4.17962072e-02, -2.26850898e-02,  1.30343513e-03, -5.64675833e-03,  1.72917115e-02, -5.41072910e-03,  9.86312369e-03, -2.08491266e-02, -6.30512617e-03,  7.82983260e-02,  9.39075487e-03, -2.42708353e-02,  2.41612450e-02, -9.47401120e-03,  1.68037642e-02, -1.88317494e-02,  1.42018825e-03, -1.09845609e-04,  1.81824422e-02,  1.98398776e-03, -3.90556776e-03,  9.38971724e-03, -3.71113056e-02, -1.43496328e-02, -3.53769516e-02, -1.12496212e-03, -7.10562665e-03,  1.47036298e-02,  9.38816026e-03,  8.64432467e-03, -1.71209681e-03,  1.26218483e-02,  3.09819796e-03, -3.80275558e-01]
w1|47|[ 0.22085179,-0.05590481, 0.29681306,-0.06832075, 0.11401898, 0.17481944,-0.15273625,-0.04378224,-0.06941559,-0.1114565 ,-0.10081342, 0.0452464 ,-0.00205085, 0.02185124, 0.01037473,-0.27200084, 0.19933421,-0.06375277,-0.07953004,-0.12450806,-0.05480828, 0.00078422,-0.17041563,-0.12314153, 0.02993129,-0.22038749, 0.26454931,-0.0362502 ,-0.10988766,-0.13584474,-0.01295451, 0.24332906, 0.07717163,-0.01284748,-0.04834452,-0.1663231 ,-0.00819317,-0.24765985, 0.07569353,-0.04700408,-0.15758091, 0.16549633,-0.14578553,-0.17026163,-0.11361707,-0.02652534,-0.03486295,-0.02437703,-0.11947728,-0.24787951,-0.1351593 , 0.00291691,-0.0026622 ,-0.00553129,-0.08737509,-0.00233175,-0.02278145,-0.00595712,-0.02590313,-0.01475708,-0.00155808,-0.01965472,-0.00057686,-0.00587928, 0.00430164,-0.00457567,-0.00298387,-0.0280669 , 0.02760426, 0.00947211,-0.01743647, 0.01183481,-0.00942724,-0.00594259,-0.00840411, 0.00668338,-0.0053924 ,-0.0037053 ,-0.00195347,-0.04049485,-0.01626772,-0.01385935, 0.00266968,-0.01825929,-0.0085822 , 0.00517796, 0.01081466,-0.00848847, 0.00653318, 0.00600126,-0.00469967, 0.00064418,-0.41548074]
w1|48|[  1.72319990e-01, -5.56564518e-02,  2.77397377e-01,  6.83861983e-02,  1.06633288e-01,  1.82218069e-01, -1.28624144e-01, -6.07672120e-02, -8.40394621e-02, -1.26988134e-01, -9.41782578e-02,  4.51411901e-02,  1.59607072e-02,  2.09399473e-02, -1.23138350e-02, -2.75977239e-01,  2.20958124e-01, -8.37059656e-02, -9.81497638e-02, -1.29721147e-01, -6.91513773e-02, -7.61635702e-03, -1.50307874e-01, -1.31148649e-01,  2.29734387e-02, -2.04634417e-01,  2.42170599e-01, -4.45272190e-02, -1.05504697e-01, -1.36145545e-01,  2.19997519e-02,  2.28899412e-01,  5.38217488e-02, -1.86016937e-02, -4.74968560e-02, -1.89538103e-01, -6.45085941e-03, -2.78155535e-01,  4.95691731e-02, -5.31081672e-02, -1.62407886e-01,  1.50694964e-01, -1.45398385e-01, -1.74136618e-01, -1.24566721e-01, -2.85551257e-02, -4.84801762e-02, -4.43642151e-02, -1.46312952e-01, -2.76164845e-01, -1.30149319e-01,  3.19588441e-03, -2.07567875e-02, -4.97523405e-03, -1.06728079e-01, -2.23275559e-02, -6.66731718e-03,  6.04691155e-03,  2.87045137e-03,  5.36661949e-03, -1.93740398e-02, -2.82163773e-02, -2.48357017e-02, -4.97662997e-03, -1.32768976e-03,  1.17160916e-02, -1.19376350e-02, -1.64754736e-02,  2.73067654e-02, -2.93559779e-03, -9.00954998e-03, -8.46010482e-03,  2.17243717e-03,  2.17132755e-02, -4.83392807e-04,  6.09333247e-03,  4.07917084e-03, -7.80502354e-03, -3.02182505e-02, -4.58192636e-03, -1.09250485e-03, -1.26086992e-02,  1.01510616e-02, -3.90313644e-04, -1.85877515e-02,  1.93929123e-03,  4.39883829e-03,  4.39045300e-04,  5.34975271e-03, -1.48424877e-04,  1.72716662e-02, -1.40703473e-03, -4.20423452e-01]
w1|49|[ 0.03649376, 0.07048565, 0.37966788, 1.44139247, 0.2187179 , 0.05539775,-0.13593233,-0.07075259,-0.26296168,-0.08882951,-0.01306175, 0.04506167, 0.13030487,-0.11387585,-0.03564898,-0.29354646, 0.16453918,-0.07128774,-0.08431906,-0.16475154,-0.11871755, 0.00194353,-0.03610441,-0.13594073,-0.08017873,-0.2360216 , 0.012687  ,-0.0732739 , 0.04136443,-0.12634198, 0.10928087, 0.13729439, 0.06956042,-0.10427427,-0.05043654,-0.10653773, 0.01895209,-0.24054222, 0.07450848,-0.18384317,-0.11557655, 0.04957104,-0.14004714,-0.11912267,-0.09438725,-0.20676513,-0.03337316,-0.09631368,-0.20750048,-0.36054079, 0.031877  ,-0.10212131,-0.04457262,-0.08365485,-0.13924547,-0.06339987, 0.03555865, 0.02617409, 0.05135895, 0.00761012,-0.01464363,-0.01865586,-0.06216194,-0.08665058,-0.00910506,-0.08042117, 0.03008454, 0.0324708 ,-0.1076925 , 0.02975918, 0.04282812,-0.00932188, 0.01014747, 0.04850139, 0.04924298, 0.03355614,-0.02002103,-0.04844213,-0.05687982, 0.03168971,-0.01763422,-0.00282025, 0.0105406 , 0.03909795, 0.0092421 , 0.01708787,-0.03403964,-0.05345854,-0.00352523, 0.05459184,-0.04210775,-0.00483097,-0.55641022]
w1|50|[ 0.22075511,-0.06970974, 0.28245201,-0.17739364, 0.10341889, 0.18699118,-0.12882519,-0.05264757,-0.07835981,-0.12887703,-0.08848668, 0.06317181, 0.01003829, 0.03762328, 0.00612825,-0.2542101 , 0.22825165,-0.06507294,-0.07524313,-0.13710096,-0.06519705, 0.00120151,-0.19027993,-0.13493998, 0.0332582 ,-0.21104922, 0.26862127,-0.04260181,-0.1304286 ,-0.113811  ,-0.01089825, 0.23580297, 0.07828722,-0.00277101,-0.04385347,-0.17617836,-0.00247815,-0.27013028, 0.0677379 ,-0.04196014,-0.16932075, 0.16232549,-0.14086053,-0.16931502,-0.11737808,-0.0244048 ,-0.03521802,-0.03084772,-0.12935247,-0.27511062,-0.13164015, 0.02126664, 0.00729914, 0.02544216,-0.09752322,-0.02766537,-0.01020115,-0.02158011,-0.03100685,-0.00989061,-0.03035781,-0.00187846, 0.01376736, 0.00355225, 0.01200059,-0.00857594, 0.00122144,-0.00457296, 0.05510231, 0.01050002,-0.02170803, 0.00296507,-0.00245854,-0.00441329,-0.01301966, 0.00842071,-0.00129822,-0.00311466,-0.01728509,-0.01211951, 0.01475986,-0.00238699,-0.01882311,-0.01618151, 0.00484508,-0.01189755, 0.02693928, 0.00830514, 0.00493608,-0.00738594, 0.00066649,-0.01159549,-0.3923178 ]
w1|51|[  2.88890691e-01, -9.30924927e-02,  2.81170045e-01, -4.73518033e-01,  1.01878160e-01,  1.89565626e-01, -1.46699242e-01, -4.05812743e-02, -6.31675507e-02, -1.62470605e-01, -7.98671282e-02,  5.69953841e-02, -4.06100887e-02,  7.64052620e-02,  1.27341970e-04, -2.85161624e-01,  2.68498231e-01, -9.40674813e-02, -6.56498869e-02, -1.39655404e-01, -6.83879729e-02, -5.14260673e-03, -2.02835628e-01, -1.28253658e-01,  3.54458105e-02, -1.77172868e-01,  3.23920016e-01, -1.47652437e-02, -1.46113653e-01, -1.26958499e-01, -4.25741662e-02,  2.34677645e-01,  1.17260419e-01,  3.08659938e-02, -5.21272950e-02, -1.86976507e-01, -2.90671645e-02, -2.66252891e-01,  7.77357481e-02, -2.36858811e-02, -1.73894181e-01,  1.68061417e-01, -1.63270742e-01, -2.12625076e-01, -5.91182015e-02, -4.01913686e-02, -5.71301984e-02, -1.04977759e-02, -1.28264259e-01, -2.53171784e-01, -1.60792833e-01,  1.83433187e-02,  2.54500339e-02,  3.77305314e-02, -9.36675692e-02, -2.03787442e-03, -4.51040865e-02, -2.58730069e-02, -4.86784900e-02, -3.28730894e-02, -3.75532809e-02,  5.64249796e-03,  1.85189254e-03,  1.28851403e-02,  1.11174766e-03,  2.19548646e-02, -3.93662885e-02, -4.09160734e-03,  7.70612955e-02,  1.88992714e-02, -1.53535492e-02,  1.49198814e-02, -3.42386413e-02,  8.20100758e-03, -4.53639679e-02,  2.21530495e-03,  5.31523570e-03,  3.58534321e-03, -1.14220021e-02, -1.99232651e-02,  1.32905476e-02, -6.29011993e-03, -1.10154834e-02, -2.81270532e-02, -2.17943463e-02, -1.15484352e-02,  3.92551389e-03,  1.61673315e-02, -1.19246240e-02, -2.03074891e-02,  2.09249225e-02, -4.28878663e-03, -3.76312123e-01]
w1|52|[  6.06868712e-02,  3.67090791e-02,  3.97486242e-01,  1.21069622e+00,  2.16498706e-01,  9.34150720e-02, -9.04948262e-02, -9.38538414e-02, -1.67628213e-01, -8.08191751e-02, -4.28827285e-02, -8.48441494e-03,  5.79231472e-02, -1.02389609e-01, -1.65285343e-03, -2.37182199e-01,  1.15845682e-01, -6.49676463e-02, -8.55868510e-02, -1.24255065e-01, -8.15104975e-02,  2.69783222e-02, -6.57174234e-02, -1.32874176e-01, -6.09926586e-02, -2.14397602e-01,  1.14899768e-01, -4.46354104e-02, -1.32615266e-02, -1.09992429e-01,  8.18156543e-02,  1.85810173e-01,  3.41564062e-02, -9.28873871e-02, -6.68232216e-02, -1.15387450e-01,  3.13844327e-02, -2.45691036e-01,  2.08468424e-02, -1.15286474e-01, -1.06205157e-01,  8.84736073e-02, -1.19177595e-01, -1.35066253e-01, -1.33944240e-01, -1.18590307e-01, -7.10435826e-02, -7.24666164e-02, -1.99006779e-01, -2.84696326e-01,  8.78582348e-03, -8.17100243e-02, -1.83115845e-02, -8.62375137e-02, -1.23805863e-01, -4.00958126e-02,  5.15043264e-02, -2.68871805e-03,  1.79010726e-02,  1.16716427e-02,  8.62535456e-03, -2.90098594e-02, -4.79753052e-02, -4.88346016e-02, -6.48397032e-03, -8.86988698e-03,  1.74934119e-02,  5.40012719e-03, -7.45518073e-02,  2.46272892e-02,  2.07101507e-02, -4.01284272e-02,  9.05830595e-03,  4.11665557e-02,  2.97467333e-02,  1.81585051e-02, -1.88067655e-02, -3.22401896e-02, -3.22990974e-02,  1.45782073e-03, -3.97364512e-02, -1.20430611e-02,  9.97879320e-05,  3.16353748e-02, -1.34176532e-02,  8.91527783e-03, -1.01000344e-02, -5.81069550e-02, -9.05437046e-03,  2.88663788e-02, -1.88167330e-02, -1.48578463e-02, -5.03790215e-01]
w1|53|[  2.10177124e-01, -6.40275380e-02,  3.04753933e-01,  1.43973668e-02,  1.27722230e-01,  1.85723030e-01, -1.46637875e-01, -2.49652593e-02, -7.27722799e-02, -1.21866263e-01, -9.51974041e-02,  4.80906074e-02, -8.87530538e-03,  2.35196855e-02,  9.08488716e-05, -2.98052460e-01,  1.95499926e-01, -7.16459464e-02, -7.41883372e-02, -1.21391568e-01, -6.05600279e-02, -1.13664884e-02, -1.60429736e-01, -1.27012250e-01,  1.73518851e-02, -2.04116452e-01,  2.57437949e-01, -4.54710692e-02, -9.12371623e-02, -1.28929220e-01,  1.34790793e-02,  2.30859443e-01,  7.52435671e-02, -3.28187476e-03, -6.39375518e-02, -1.65078273e-01, -2.96734648e-04, -2.62051507e-01,  6.47847335e-02, -6.76410750e-02, -1.55530357e-01,  1.62067433e-01, -1.33746697e-01, -1.68336917e-01, -1.13149549e-01, -3.27700644e-02, -5.33795102e-02, -4.85232331e-02, -1.46020635e-01, -2.85312829e-01, -1.39011158e-01,  9.57567187e-03, -1.18352438e-02, -3.35557737e-03, -1.09613635e-01, -1.42359112e-02,  2.19463016e-02, -5.91613237e-03, -2.48514389e-02, -2.25723096e-02, -3.18556473e-02, -2.53929966e-02, -7.13157718e-03,  1.68025341e-04, -3.01372380e-02, -6.72339551e-04,  5.71101776e-04, -6.24812565e-03,  8.83536707e-03,  9.26168032e-03, -1.14368615e-02,  6.84941919e-03,  2.03931961e-03,  4.89028501e-03, -6.09114554e-03, -2.16026481e-02, -7.10082936e-03, -7.98134956e-03, -2.35309959e-02,  6.37988530e-03, -1.37661222e-02, -2.10213724e-02, -5.16731967e-03, -8.41968863e-03,  8.45273108e-03,  1.58680422e-02, -3.38424452e-03,  4.89451205e-03, -6.47631242e-03,  6.35912251e-04,  4.72067467e-03,  1.02136997e-02, -4.22817354e-01]
w1|54|[ 0.26879861,-0.07022007, 0.26610825,-0.40326336, 0.08785862, 0.19028915,-0.1326095 ,-0.03518326,-0.05787909,-0.12467741,-0.0936124 , 0.04821642,-0.01529144, 0.06605087, 0.0053093 ,-0.27295699, 0.23142963,-0.06596247,-0.0671755 ,-0.1192565 ,-0.05087989,-0.00123494,-0.19504411,-0.12499386, 0.04274888,-0.19286195, 0.2901986 ,-0.02236534,-0.13161382,-0.11161922,-0.01698721, 0.23996511, 0.0908654 , 0.02102419,-0.04536309,-0.18450121,-0.03119808,-0.26739229, 0.10033413,-0.01527406,-0.17358009, 0.18078047,-0.1516807 ,-0.21111756,-0.05661094,-0.0207283 ,-0.05045642,-0.04271123,-0.11851566,-0.24691661,-0.16024891, 0.01380642, 0.00061529, 0.01903642,-0.11108984, 0.01027271,-0.01609916,-0.0173106 ,-0.05154379,-0.02371898,-0.01163758,-0.00286857,-0.00765245, 0.01879279,-0.00481002, 0.01019629,-0.01914187,-0.01184159, 0.0522865 , 0.02045607,-0.01545122, 0.02439115,-0.00820674, 0.00630869,-0.00826638,-0.00401678, 0.01013094,-0.00465757,-0.02478619,-0.00411442,-0.0080208 ,-0.02919953,-0.02861701,-0.03440377, 0.00064441,-0.02891684, 0.00580789, 0.03817778, 0.0011933 ,-0.01607873, 0.01555996,-0.00075021,-0.38813388]
w1|55|[  1.10185455e-01,  5.61968684e-02,  4.51721433e-01,  1.75447627e+00,  2.26690042e-01,  1.92026124e-01,  5.57278150e-02, -1.12105435e-01, -1.12986152e-01, -5.68055221e-02, -4.59207151e-02, -1.74827095e-02,  1.80733802e-02, -1.34371509e-01, -3.03041312e-02, -9.58841249e-02,  6.87912499e-02, -1.03243747e-01, -9.66279016e-02, -1.09786934e-01, -5.29582130e-02,  5.41865981e-03, -7.44567422e-02, -1.37350370e-01, -9.89602835e-02, -1.53264437e-01,  1.85522109e-01,  8.64782787e-03, -9.84589505e-02, -8.44023356e-02,  4.25728748e-02,  1.65666697e-01,  4.48220543e-02, -1.09953867e-01, -3.20954999e-02, -9.56859172e-02,  3.93151735e-02, -1.85592080e-01, -4.32857459e-02, -4.11827593e-02, -8.41396316e-02,  3.37272611e-02, -1.26245361e-01, -1.55758087e-01, -7.19398180e-02, -3.85514134e-02, -7.72528442e-02, -1.04822893e-01, -1.85926425e-01, -2.46071967e-01,  1.21770304e-02, -1.56578396e-02, -3.88142558e-02, -1.04632266e-01, -8.20147864e-02, -5.33924992e-02,  6.73475240e-02,  2.82152022e-02,  2.34908260e-03,  1.98393144e-02, -8.36246493e-03, -3.38643445e-02, -2.88404699e-02, -9.08840742e-02, -1.42819225e-02,  1.69325464e-02,  1.31011815e-02, -1.35727465e-03, -1.44400497e-01,  4.38499764e-02,  4.03893136e-03, -6.11214246e-02,  1.42754022e-02,  5.10951658e-02,  4.30505677e-02,  4.81324496e-02, -3.81357203e-02, -5.66047079e-02, -3.21464997e-02,  1.12022101e-02, -1.53389674e-02,  5.23510671e-03, -1.93358756e-02,  4.03888192e-02, -7.02706902e-03,  2.94189777e-02, -2.28317637e-03, -8.02326291e-02, -2.43205243e-02,  3.41186369e-02, -2.54532912e-02, -7.63735130e-03, -4.48158026e-01]
w1|56|[ 0.26912058,-0.07942813, 0.28138834,-0.15376489, 0.09467819, 0.19063514,-0.14002177,-0.05259201,-0.07088145,-0.11793099,-0.09612538, 0.03361757,-0.00312291, 0.04086842, 0.00617902,-0.26456896, 0.22502562,-0.07868827,-0.08494308,-0.15223505,-0.06625637, 0.00788402,-0.19310949,-0.12605901, 0.05397748,-0.19662523, 0.25105428,-0.02985676,-0.13107179,-0.12319308,-0.01832143, 0.25440246, 0.07258453,-0.00483487,-0.05527754,-0.16307885,-0.00224547,-0.25610357, 0.07646901,-0.0668425 ,-0.17729563, 0.16196132,-0.14074572,-0.18690675,-0.10739828,-0.02686208,-0.0769506 ,-0.01303521,-0.11835426,-0.26520662,-0.16095177, 0.00529224,-0.00077447, 0.01781753,-0.09453105,-0.00163381,-0.01372386,-0.01042552,-0.0379705 ,-0.02986616,-0.03271549,-0.01991507, 0.01436629,-0.00370876,-0.0266884 , 0.01820994,-0.01804585,-0.02620053, 0.02872385, 0.01520431,-0.00353357,-0.00053078, 0.00298013, 0.00256615,-0.02026879,-0.01868197,-0.01737529,-0.00344572,-0.00454577,-0.01643047, 0.00929388,-0.01353351,-0.00432574,-0.01034277,-0.00628627,-0.02920645,-0.0025004 , 0.00549406, 0.00707738,-0.00984777,-0.00937462,-0.01231175,-0.42643393]
w1|57|[ 0.03165469, 0.0573417 , 0.38788444, 0.9829504 , 0.21103209, 0.04970202,-0.15580442,-0.04796665,-0.17902287,-0.09421739,-0.07230471,-0.00493674, 0.08408546,-0.08103934,-0.01965766,-0.29127188, 0.17089996,-0.09961184,-0.08904237,-0.14688934,-0.06601037, 0.03055196,-0.09400572,-0.1588598 ,-0.00805014,-0.20799627, 0.12055382,-0.06935651, 0.01326829,-0.08538408, 0.10423158, 0.17449091,-0.00666607,-0.09020781,-0.07085958,-0.10579243, 0.0165953 ,-0.24209136, 0.03296964,-0.13917053,-0.13475392, 0.1278931 ,-0.12718892,-0.11242021,-0.145629  ,-0.12842377,-0.05188561,-0.07938365,-0.2255326 ,-0.27682856,-0.0206904 ,-0.08547763,-0.02475338,-0.06160626,-0.12738201,-0.03015938, 0.0408301 , 0.00130946, 0.02081723, 0.01373119,-0.02657183,-0.01832538,-0.03080073,-0.0374893 ,-0.01527096,-0.00522284, 0.02196659, 0.00804669,-0.06791927, 0.0112878 , 0.01059406,-0.02187738, 0.01563573, 0.01940367, 0.04726571, 0.0220966 ,-0.01831324,-0.01063504,-0.02803914, 0.0129123 ,-0.01829774, 0.01214166,-0.02022148, 0.0218732 ,-0.00523557, 0.01104069,-0.01630191,-0.0318632 ,-0.02803516, 0.03316457,-0.0202686 ,-0.0279042 ,-0.53462926]
w1|58|[  1.68232767e-01, -1.21508967e-03,  2.99984023e-01,  2.35058350e-01,  1.53738745e-01,  1.42890638e-01, -1.29838638e-01, -6.85663175e-02, -9.28862323e-02, -1.03783781e-01, -7.89825188e-02,  4.37308248e-02,  1.14650346e-02, -7.64219839e-03, -7.40628177e-03, -2.73657933e-01,  1.92456518e-01, -6.94377071e-02, -7.51925261e-02, -1.24756408e-01, -5.64853172e-02, -5.07482276e-03, -1.34598092e-01, -1.27997006e-01,  3.28902308e-02, -2.08462929e-01,  2.16967950e-01, -4.93007930e-02, -6.91170613e-02, -1.18082002e-01,  4.03006953e-02,  2.12954650e-01,  4.15398771e-02, -3.07583825e-02, -6.37072313e-02, -1.51468175e-01,  4.46571084e-03, -2.64660013e-01,  2.99144665e-02, -7.69582531e-02, -1.40737681e-01,  1.44814286e-01, -1.26548627e-01, -1.55617077e-01, -1.40594648e-01, -2.64081224e-02, -5.06649234e-02, -5.36136417e-02, -1.49411753e-01, -2.83800552e-01, -1.04906263e-01,  1.44265133e-03, -5.73387146e-03, -1.74903650e-02, -9.57220228e-02, -1.04455188e-02,  1.31073107e-03, -2.13682204e-03, -9.16158769e-03,  4.62860302e-03, -2.58190409e-02, -2.24360622e-02, -2.07192750e-02, -4.12574258e-03,  2.59050403e-03,  3.37499310e-03,  1.16836120e-02, -1.46287130e-02,  3.38687132e-04,  6.65072685e-04, -1.17003853e-02, -2.61683901e-03, -9.00954564e-03, -3.70187528e-03,  1.78931525e-02, -4.57549993e-03, -2.24429866e-04, -1.10854567e-02, -8.33309050e-03, -2.18535266e-03, -3.37188406e-03, -4.32709376e-03, -1.54418181e-02, -8.62349879e-04, -4.77616824e-03,  1.09053710e-02,  2.33761487e-03, -1.77707325e-02, -4.94669504e-03, -5.74503073e-03, -7.24062156e-03,  1.36549560e-02, -4.55668949e-01]
w1|59|[  2.27987735e-01, -7.65935990e-02,  2.75961298e-01, -9.14836038e-02,  8.22121840e-02,  1.89927313e-01, -1.29179852e-01, -5.61329640e-02, -5.59372628e-02, -1.16170390e-01, -7.85371607e-02,  4.58048299e-02, -2.66764960e-02,  2.54653255e-02,  2.48432077e-03, -2.83134526e-01,  2.27155352e-01, -7.61603296e-02, -9.27281968e-02, -1.50268760e-01, -6.16583871e-02, -1.04195811e-02, -1.76444504e-01, -1.27234892e-01,  4.31705332e-02, -1.75919030e-01,  2.74329773e-01, -3.32681577e-02, -1.09028752e-01, -1.19265414e-01,  1.53304484e-04,  2.44682861e-01,  5.88748227e-02,  4.22252044e-03, -7.41371993e-02, -1.76497829e-01, -1.28067181e-02, -2.52194600e-01,  7.25009957e-02, -6.79710325e-02, -1.56154261e-01,  1.60230511e-01, -1.28586569e-01, -1.73226958e-01, -1.07545718e-01, -3.20363724e-02, -4.82463267e-02, -3.04712769e-02, -1.47947954e-01, -2.94458643e-01, -1.53109677e-01,  2.70069276e-02, -2.35646682e-03, -1.41426130e-03, -7.20513061e-02, -2.94511848e-03,  7.20996259e-05, -1.53671244e-02, -6.72045738e-02, -6.07901913e-03, -1.99558112e-02, -3.59808999e-02,  1.52137284e-02, -1.28978326e-03,  4.10227446e-03,  6.51021412e-03, -2.80844542e-02, -1.81993529e-02,  2.63647506e-02,  2.23489879e-02, -1.17143250e-02,  1.36108288e-03, -9.95671064e-03,  2.03554774e-03, -1.61223949e-02,  1.91705567e-02,  8.12991269e-04, -5.85983044e-04, -6.89885022e-03, -1.04216525e-02, -6.03694536e-03, -8.04222693e-03, -1.28921102e-02, -8.06466075e-03,  4.04370411e-03, -3.29217050e-03,  1.03172281e-02,  1.80938449e-02,  2.20497561e-03,  4.09343059e-03,  4.15818143e-04,  5.57498152e-03, -4.17397253e-01]
w1|60|[ 0.13873572, 0.01449119, 0.50342203,-0.85070657, 0.14345173, 0.0636073 ,-0.04911537,-0.11587348,-0.04994897,-0.09978736,-0.035752  , 0.01457647, 0.09418643, 0.09937588, 0.02952283,-0.19367505, 0.23691225,-0.00852855,-0.02697784,-0.10451628,-0.03362705,-0.00543993,-0.14137404,-0.14284316, 0.02368393,-0.20860626, 0.22407347,-0.10385308, 0.1142423 ,-0.09188448, 0.05991574, 0.28708775, 0.10062939, 0.06013878,-0.12582096,-0.16011888,-0.01499026,-0.26654713, 0.03501231, 0.10450748,-0.11535435, 0.25832378,-0.11894188,-0.11353257, 0.13858085,-0.06351287,-0.01422326,-0.01915102,-0.07313375,-0.01533689, 0.0904099 ,-0.08921579, 0.02974513, 0.06483408,-0.12687164, 0.02213317,-0.04491722, 0.00390349, 0.01556957,-0.01420201,-0.02337773,-0.01185975,-0.02719916, 0.04360469,-0.0116792 ,-0.01138533,-0.02567386,-0.00829427, 0.11589438,-0.00651713, 0.00150552, 0.02774352, 0.01173333,-0.00965383,-0.00727023,-0.04424946, 0.0083621 ,-0.00460565,-0.00550428,-0.00851847, 0.03089958,-0.02751223,-0.00942903,-0.03357977, 0.0243331 ,-0.01204291,-0.0206581 , 0.03699167, 0.00507619,-0.01999072, 0.00506182,-0.01062247,-0.09074351]
w1|61|[  9.47724004e-02, -9.17895608e-04,  3.22909972e-01,  5.50427269e-01,  1.66117072e-01,  1.30636477e-01, -1.34328452e-01, -5.19381600e-02, -1.08578005e-01, -1.10771988e-01, -7.75893732e-02,  3.47501742e-02,  5.07067187e-02, -3.63222656e-02, -1.71808905e-02, -2.81547121e-01,  1.49373879e-01, -4.92432101e-02, -9.61501174e-02, -1.16893208e-01, -4.38237876e-02,  1.29523041e-02, -1.15958613e-01, -1.25772191e-01,  2.50739252e-02, -2.33592483e-01,  1.58571045e-01, -7.61621684e-02, -3.32735476e-02, -1.01350907e-01,  6.90855968e-02,  1.92534985e-01,  2.40707978e-02, -4.50751291e-02, -6.30067179e-02, -1.38409733e-01,  1.07893239e-02, -2.46745185e-01,  3.44936721e-02, -9.36937234e-02, -1.46933334e-01,  1.38071523e-01, -1.25450210e-01, -1.14281475e-01, -1.40371014e-01, -6.97120618e-02, -5.41914236e-02, -6.97762216e-02, -1.59803470e-01, -2.88325374e-01, -8.49290615e-02, -3.77547919e-02, -3.57421220e-02, -3.14311089e-02, -9.45706651e-02, -1.78578399e-02,  1.32629235e-02,  3.70256201e-04, -9.15051450e-04, -7.06330271e-03, -1.81497170e-02, -1.39415558e-02, -5.10721417e-02, -3.81296649e-02,  4.23428094e-03, -4.18386378e-03,  5.43102085e-03,  5.67984033e-03, -3.53613994e-02,  1.56672571e-02, -1.97180071e-03, -2.29442622e-02, -6.59076766e-03,  2.59886677e-02,  3.51119537e-02, -2.50142680e-03, -2.83671231e-02, -1.65180450e-02, -2.57149896e-02,  2.19619599e-02, -1.53989965e-02,  4.52633612e-03, -6.96742743e-03,  8.73568518e-03, -2.15778449e-02,  4.67159182e-03, -2.77307559e-03, -1.43283986e-02, -1.88505208e-03,  3.12593061e-02, -2.84968978e-02,  6.51276385e-03, -4.83858897e-01]
w1|62|[ 0.19437434,-0.0514843 , 0.28817913, 0.1033895 , 0.12888989, 0.16370564,-0.12975938,-0.06771088,-0.09476437,-0.11521097,-0.1009091 , 0.04767422, 0.01502518,-0.0027458 ,-0.00515812,-0.28198663, 0.20096639,-0.07333504,-0.08798051,-0.1178568 ,-0.05985274, 0.00612913,-0.15185699,-0.12053424, 0.04081961,-0.19627911, 0.24405504,-0.05313766,-0.08738775,-0.1232111 , 0.02755947, 0.23583829, 0.07134363,-0.00482222,-0.07023192,-0.15057957,-0.03149864,-0.26380484, 0.05697063,-0.06124321,-0.15558464, 0.17405709,-0.14114669,-0.15576704,-0.12674707,-0.02091341,-0.04122758,-0.05722425,-0.15054823,-0.2751938 ,-0.12487981,-0.01379289,-0.00766923, 0.00202885,-0.09781159,-0.01882567, 0.00559446,-0.00585042,-0.01634639,-0.02081922,-0.01058889,-0.01364486,-0.01641828,-0.00701744, 0.00226786, 0.01019093, 0.01736728,-0.0110378 , 0.01419502, 0.00887628,-0.01641847,-0.00533802,-0.01238042, 0.01342455,-0.00199175, 0.00586565,-0.00480218,-0.01675232,-0.02098989, 0.00442144,-0.00354333,-0.01049167,-0.00863791,-0.01391744, 0.0030003 ,-0.0046932 ,-0.00146568,-0.00652335,-0.00151382, 0.00591215, 0.00838139, 0.00560491,-0.44256872]
w1|63|[ 0.14331495,-0.02050307, 0.30314575, 0.34347639, 0.149441  , 0.13683643,-0.14895542,-0.05810954,-0.11213099,-0.10594201,-0.10206078, 0.02306553, 0.03624125,-0.0172721 ,-0.00892544,-0.29221352, 0.17163821,-0.07361528,-0.06029618,-0.11882427,-0.04979539,-0.00355547,-0.1291201 ,-0.11943842, 0.01171288,-0.22769375, 0.20241945,-0.06082558,-0.05635314,-0.1058654 , 0.04420279, 0.22636541, 0.03165104,-0.05163246,-0.07085099,-0.14690139, 0.00050358,-0.25205405, 0.02875386,-0.09248717,-0.14071378, 0.12486311,-0.12798135,-0.14436216,-0.15195171,-0.06173036,-0.03269206,-0.06972925,-0.15605444,-0.27487696,-0.09211097,-0.02603772,-0.01537071,-0.01437402,-0.09669319,-0.00848256,-0.00235704, 0.00619043,-0.00690289,-0.01213038,-0.04328023,-0.01682933, 0.00394296,-0.02794956,-0.0020786 , 0.01858465, 0.00637222, 0.00145906,-0.0266995 , 0.01134007, 0.00231186,-0.00923363,-0.00561483,-0.01113243,-0.01033435, 0.00560665,-0.01799321,-0.01388225,-0.02997084, 0.01060228,-0.01638357,-0.00464461,-0.00255376, 0.00169027,-0.00768757, 0.00772016,-0.01417006,-0.00619875,-0.00440585,-0.00891849,-0.01505916, 0.00393203,-0.44411998]
w1|64|[  1.01970141e-01, -1.21173867e-02,  3.27495948e-01,  5.11273375e-01,  1.77715170e-01,  1.15144088e-01, -1.39809385e-01, -8.26550438e-02, -1.38128591e-01, -1.14398787e-01, -8.66097590e-02,  2.85035273e-02,  3.33266709e-02, -1.86887402e-02, -1.19453224e-02, -2.76059981e-01,  1.64522802e-01, -6.51863613e-02, -1.05178693e-01, -1.10675083e-01, -4.59058885e-02,  6.71088981e-03, -1.25674140e-01, -1.31529925e-01, -4.06314079e-04, -2.32074649e-01,  1.95124219e-01, -6.64198666e-02, -2.48998778e-02, -1.05973218e-01,  8.92541242e-02,  1.98462280e-01,  3.64091751e-02, -4.65433935e-02, -6.79732388e-02, -1.40458541e-01,  1.19549705e-02, -2.52237478e-01,  3.15666819e-02, -1.05864956e-01, -1.36530566e-01,  1.30060931e-01, -1.26327829e-01, -1.35532133e-01, -1.47348715e-01, -5.90005517e-02, -4.71623782e-02, -6.96470200e-02, -1.65472724e-01, -2.80423841e-01, -9.13161543e-02, -3.66132697e-02,  2.00659872e-03, -3.13597178e-02, -1.23380345e-01, -2.51885567e-02,  2.41749121e-02, -1.37735772e-02,  7.99052926e-03, -2.21139086e-04, -3.54068666e-03, -1.76117372e-02,  1.02310977e-03, -2.88906256e-02,  1.18889543e-02, -1.57830425e-02, -5.78499305e-03, -7.19728538e-03, -3.44041918e-02, -4.29378143e-04,  1.19570234e-02,  1.21616311e-04,  3.36727632e-04,  1.40896513e-02,  1.98093240e-02,  5.99565234e-03,  1.79308512e-03, -1.79429987e-02, -1.65395223e-02,  7.41990496e-03, -5.94141374e-03, -2.57462652e-02, -1.10817688e-02,  1.57961196e-02, -9.96157091e-03,  5.42082012e-03, -2.22712616e-03, -3.46370656e-03,  1.41114709e-02,  2.21217945e-02, -5.27077753e-03, -3.53049940e-03, -4.74728064e-01]
w1|65|[  2.13791322e-01, -4.96921939e-02,  2.85254234e-01,  4.45058829e-02,  1.13683278e-01,  1.85629844e-01, -1.50849227e-01, -5.78794180e-02, -7.78250262e-02, -1.07542918e-01, -9.76850700e-02,  5.14270353e-02, -4.89109654e-03,  3.88542688e-02,  1.51133615e-02, -2.71737006e-01,  1.98624265e-01, -7.78981343e-02, -8.49614622e-02, -1.23495758e-01, -4.52637968e-02, -2.87604071e-02, -1.60583959e-01, -1.19739482e-01,  4.05797777e-02, -2.05404379e-01,  2.64485889e-01, -5.02811699e-02, -9.30820198e-02, -1.29179419e-01,  1.58001509e-02,  2.28176183e-01,  7.27471070e-02, -2.87387599e-02, -6.84737764e-02, -1.83341945e-01, -9.83891800e-03, -2.68013741e-01,  5.54415046e-02, -5.71569512e-02, -1.39803363e-01,  1.34170080e-01, -1.32100887e-01, -1.68837644e-01, -1.18882709e-01, -2.72797546e-02, -4.33201122e-02, -4.52536645e-02, -1.36385463e-01, -2.57726940e-01, -1.37150771e-01,  8.72948922e-03,  3.68917137e-03,  1.38921882e-02, -1.04653721e-01, -1.22514677e-02, -2.31314526e-02, -5.11697477e-03, -6.27530767e-03,  4.53551386e-03, -8.51241074e-03, -1.71311396e-02,  6.96693988e-04, -6.03833517e-03, -8.11361504e-03,  1.98040319e-02,  5.69159606e-03, -1.46039253e-02,  3.97055568e-02,  5.88917967e-03, -1.66628316e-02, -2.59077654e-03, -1.30572156e-02,  2.61304490e-03, -1.33308026e-02,  6.24074013e-04, -1.08402694e-02, -7.88913529e-03, -1.23127223e-02, -1.17095043e-02, -1.10968678e-02, -5.68563852e-03, -2.56179476e-02, -3.47522592e-03,  1.39392978e-03,  9.49039226e-04, -5.18201648e-03, -5.00542052e-04,  7.21887052e-03, -7.16108797e-03, -8.72096271e-05, -1.32540899e-02, -4.33818697e-01]
w1|66|[  2.95875248e-01, -1.10194103e-01,  2.74820199e-01, -4.77671191e-01,  7.98721021e-02,  2.00263208e-01, -1.39498486e-01, -6.31001263e-02, -6.01598685e-02, -1.43976509e-01, -7.09094930e-02,  4.97504456e-02, -3.62790418e-02,  7.53186528e-02,  2.06661381e-02, -2.88413023e-01,  2.64023705e-01, -1.03366220e-01, -5.71444765e-02, -1.66830667e-01, -4.02005994e-02, -8.71717678e-03, -2.17137664e-01, -1.27717672e-01,  4.91900303e-02, -1.74583258e-01,  3.09850158e-01, -2.19911240e-02, -1.68701547e-01, -1.24377505e-01, -3.11663832e-02,  2.68346961e-01,  1.20630699e-01,  3.33571669e-02, -4.42283181e-02, -1.92365798e-01, -2.47775872e-02, -2.67181822e-01,  7.54262998e-02, -4.39898748e-02, -2.03208468e-01,  1.77388308e-01, -1.56777222e-01, -1.95806346e-01, -7.60593460e-02, -3.27217488e-02, -3.73408894e-02, -1.95301439e-02, -1.06626099e-01, -2.58789168e-01, -1.70282806e-01,  3.01629045e-02,  1.96522353e-03,  4.60135864e-02, -8.08249620e-02,  9.20552686e-03, -3.89116337e-02, -1.73690918e-02, -5.33677176e-02, -4.21895361e-02, -1.86402249e-02,  3.48453502e-03, -1.77962250e-03,  9.40547315e-03, -1.21797449e-02,  1.46251645e-02, -1.14905422e-02, -9.16099280e-03,  8.45059439e-02,  2.63356183e-02, -9.36587699e-03, -6.33129438e-05, -1.92793663e-02, -1.46377900e-02, -3.64241586e-02,  1.38934515e-03, -1.11159430e-02,  1.26322586e-02, -2.92585134e-03, -7.86341149e-03, -4.62881819e-03, -1.37404270e-02, -6.51027168e-03, -2.07719659e-02, -1.38179862e-02, -7.60537493e-03,  1.63837477e-02,  3.54592439e-02,  9.42287545e-04, -2.45898044e-02, -5.73681005e-03,  1.09967368e-03, -4.01837068e-01]
